0.355709
0.453555
-2.43496
-5.85061
0.269171
1.2773
0.647639
0.638218
0.933142
0.635227
-2.31211
0.789816
0.0980144
0.399766
0.336419
-1.81679
-5.96261
-0.229817
1.7184
0.0260228
-2.96832
0.856155
-1.44268
0.352466
0.0301198
-0.96164
1.76574
1.62947
-1.26996
-0.508649
0.713621
-2.68855
-2.19409
-0.0284907
2.35177
1.07016
-0.957898
2.03076
-0.638745
0.076695
-0.70873
-2.66556
-0.480577
0.102082
2.9107
1.51007
2.0368
0.650193
2.39422
1.9832
1.68452
1.09035
2.81743
1.99551
-2.99476
2.58947
-0.859684
-0.221255
1.01918
3.32974
2.08291
-0.550212
-1.21689
0.547976
-2.74501
0.390586
0.312701
-0.257888
-1.90152
-0.162517
0.472316
-1.23424
2.25034
-3.49582
2.26336
-0.341641
-1.01219
-2.3331
1.08592
-2.5994
-1.85094
1.00618
-2.16972
0.398619
0.243338
2.69698
-3.49529
-0.0396119
-2.91517
-0.929406
-0.157147
0.356288
1.02857
-1.3179
-1.30994
-1.2483
2.78829
-0.361347
2.85684
2.48308
-1.00221
2.63418
3.94501
1.5511
1.07055
-0.570808
-1.47025
-1.56888
1.18817
0.254865
1.15277
-1.7604
-0.794605
-0.753675
-0.137943
-0.301634
-0.230011
1.27452
-0.0152544
1.31158
-1.48982
1.28106
-0.96905
-1.2816
-2.77757
-2.49921
1.87878
-0.959518
1.92225
-2.46832
-1.04836
1.88133
-2.71756
1.32512
-0.82742
0.158504
-4.89713
-0.0930074
-4.75654
-0.0395143
0.999062
0.719581
0.876003
-0.342456
-3.21361
2.99621
-0.0421061
-0.496176
-1.7063
2.28472
1.61465
0.66005
0.167947
1.8576
-2.37386
-1.38405
1.23004
-1.09052
-1.47403
0.095512
-0.179482
1.62654
3.02019
-1.76804
0.165198
-0.800121
-0.159379
-0.976764
-3.08196
0.564897
0.647403
2.93007
3.43502
1.06975
1.02157
3.21407
4.21648
-0.590923
-2.14732
-3.52786
0.243188
1.13993
1.13169
-0.894502
2.6229
3.51257
1.6647
1.45691
-0.983065
0.802715
0.791022
1.33016
-3.28253
-1.11004
2.85742
0.469835
2.1336
-3.8058
1.57368
-4.02636
-2.63444
-0.785631
1.76572
0.850136
0.320717
0.690415
0.475073
1.75414
-0.447149
-2.83016
-2.12835
2.99899
2.04568
0.0657438
-0.359237
0.945073
1.88265
1.9911
-0.0390747
0.467279
-4.00004
0.679753
-1.05166
1.11698
2.78543
-0.567515
-1.92723
-2.12574
-4.286
-1.92171
0.184229
0.724976
-1.79087
1.07622
-0.149381
0.71233
-1.35025
-0.964645
-0.397957
-0.68232
1.27498
0.195399
-2.56877
0.829111
-0.964784
1.97667
-1.61192
-0.938582
-0.802378
1.13339
-1.81298
2.47097
0.1104
0.1046
0.028
0.133
0.01
0.036
0.1556
0.1879
-0.390439
-0.659479
-0.430814
-0.174142
0.485058
-0.103594
0.557525
0.63963
-0.160987
0.352256
-6.8458
-0.446831
5.40131
1.71357
-0.45392
-0.846464
-0.456398
-0.406317
-0.553708
0.0253025
0.130184
0.324392
0.215653
1.00147
1.58148
-3.4186
0.484055
0.847383
1.87808
0.42076
2.87063
0.540427
-2.68008
-0.685381
-0.186415
1.92032
1.76495
0.189033
1.49645
-1.27765
1.2689
-1.22006
-0.660709
-0.305368
1.46709
-0.606385
-1.26006
0.526884
-0.867833
1.6479
-1.55689
-2.08326
1.58023
-0.3781
0.610205
-0.079584
0.56451
-1.79382
1.38596
0.587691
0.963429
0.367158
0.510758
-0.437499
-1.64764
-1.89298
-1.1112
0.210749
0.282993
0.168107
1.57527
0.852403
-0.76706
0.311795
2.54782
-1.28282
3.20724
-0.26999
-0.494511
-0.415845
2.7458
-0.529294
0.530001
-1.34194
0.980723
-2.20208
-1.53328
-1.42914
-1.24755
-1.18236
-0.3747
-0.808994
0.459783
-0.16902
-0.0599886
-1.39756
-0.200573
-2.18225
4.10187
-3.06109
-3.08453
1.32059
4.76524
3.95392
0.97145
-0.45525
0.923811
-2.72946
0.15895
3.30514
2.60906
-1.85058
-0.254148
-0.457548
2.83865
-0.444437
-1.13883
1.52102
0.857075
0.747117
-0.927439
-0.179623
3.04059
-1.12257
-0.812254
-1.54633
-2.1889
-0.382917
0.19971
0.346922
0.613524
1.6346
1.57522
0.6807
0.794837
0.63881
-1.03185
-3.19531
-0.31037
1.5841
-2.82752
-1.48789
0.282043
-0.247547
1.66783
-1.90192
1.86706
0.887913
-2.65234
0.286189
1.7969
-1.10003
2.48731
-2.25989
0.508411
-1.96457
0.948755
2.11266
-0.189804
-1.54752
-0.436892
-1.46033
-2.82798
-0.979746
1.60398
1.31053
1.62085
2.50057
0.884944
-1.83413
-0.645266
1.18939
1.54344
0.815784
-0.628161
-0.482213
-0.755823
-0.664759
2.31703
1.30504
0.247369
-0.0460918
-0.821116
-0.128412
3.19565
0.0744379
1.11132
-0.385067
-1.34089
0.872158
0.0968241
0.671519
-1.23507
-0.163305
-0.990986
2.51033
-0.482711
1.55917
0.713017
1.43339
-0.998617
0.337799
-2.68896
0.973782
0.0698363
-0.622789
0.845159
1.17001
0.167431
2.61775
-2.01212
0.111694
-0.54541
-2.187
-2.27677
2.38703
-2.69107
0.676407
-1.50025
0.630665
-1.16995
1.01331
-0.962805
-3.66814
1.88969
1.70736
-1.37853
-0.799786
0.753723
1.1347
2.45487
-0.662441
0.715231
-1.73626
2.07143
-2.06598
-2.19391
0.493529
-1.11742
-0.546694
1.30806
-0.220488
-0.774506
-1.45509
1.95804
0.506127
-0.0696964
-1.40179
0.129603
2.02955
0.288388
0.597722
0.1204
0.0336
0.0412
0
0.0288
0.112
0.0218
0.1
0.189025
0.613065
0.533527
-17.6775
0.59813
0.249378
0.23254
0.256443
0.383667
0.304655
0.453322
0.222356
0.1687
0.324315
0.65089
2.60662
0.587049
0.545754
0.0994848
1.02104
1.70088
-0.0870915
0.363011
-0.155786
-0.124687
0.570475
-0.351642
1.28977
2.50249
0.756224
-0.299884
0.764669
1.278
-0.0406798
2.08108
-0.00436432
0.690538
3.21193
2.04665
0.334959
0.429526
1.03038
0.125861
-1.23618
0.0300975
-0.106235
2.24165
-0.100097
0.0651954
-0.293496
-1.06506
-1.6849
3.48208
-0.344535
0.167902
-2.03779
-0.572959
-0.226518
-1.1768
0.847156
1.34931
0.460597
0.344769
0.606138
0.788796
-1.64243
0.413329
0.0692661
-0.394511
-1.92864
-0.586706
2.2274
-1.04839
-0.110703
-2.79285
-0.374128
-0.883825
-0.816717
-1.54302
0.131152
-0.581327
0.840995
0.776793
-0.53178
0.144989
-3.10377
0.355716
-0.472371
-0.0427265
1.05595
1.45495
1.74312
0.656246
-0.225502
1.01517
-0.612523
1.46253
-0.289345
-0.917401
-1.19263
1.95547
-2.36345
-2.39436
-2.25483
1.90703
-0.482215
-0.180825
0.993136
-0.2525
1.02637
-0.215283
0.595151
-1.07841
2.71437
0.712164
0.0623247
-0.187232
0.375372
0.790224
0.368672
-0.327421
-1.48383
0.111518
0.300968
-0.573702
3.35192
-0.53553
0.0833797
0.285595
-0.569695
0.0894283
-1.29374
1.4775
-3.22917
1.545
-0.370634
1.26644
-1.62092
3.84942
0.811298
-0.567065
-0.196338
-0.00540154
-1.16991
3.68575
-0.145847
1.57777
0.70975
2.83125
-0.471964
-0.391406
0.605128
0.979532
0.327165
0.321237
2.76162
-0.195298
-0.759257
-0.881204
0.305475
0.307358
2.17384
1.68209
-0.595182
-1.44361
-0.667304
1.38375
1.44562
-0.27095
-1.73969
2.51521
-0.803285
-0.214413
-1.32214
-1.13297
-0.732657
-2.45283
0.221128
0.984293
0.12369
-1.18257
-2.07823
2.00618
1.66826
-0.128462
-1.63869
2.8268
4.04695
-0.469039
0.814395
-0.34395
0.312787
0.301676
0.796551
-1.85077
-0.14905
-1.45623
-0.373564
-1.50002
0.318572
-0.257747
-1.08552
-1.88658
2.71214
1.64457
0.052754
0.215339
-0.66815
-0.997535
0.887023
0.982307
1.01362
-0.771822
-0.931089
-1.57867
0.298027
1.35055
-0.821177
-1.25746
0.808902
0.195381
1.36676
-0.372823
-0.27961
-0.154351
1.48569
-0.661756
-1.63664
0.0851926
-1.06225
-0.160013
2.91821
0.529762
0.354569
-1.61609
-1.77555
0.38811
0.413311
0.746436
-0.665382
-0.707508
-0.0705217
1.10834
2.61454
-0.442167
-0.570959
-0.764259
-0.918079
-0.395992
1.48427
-0.816616
-1.95629
0.015
0.0776
0.0352
0.0676
0.0865
0.0576
0.214
0.012
0.27809
0.205776
0.695492
0.374395
0.543721
0.526186
-17.0554
0.967726
0.550695
0.645627
0.517534
0.380354
0.679198
0.280771
0.825789
0.301813
0.446311
0.62742
1.70064
0.471206
1.49437
1.17094
1.15023
-0.171362
1.1836
1.21108
-0.321521
-0.0186142
0.706351
1.42305
-0.26308
-2.52513
-0.537133
-1.72758
-0.26804
0.891854
1.05459
1.25164
0.545667
-0.611163
0.293923
3.41985
-1.61467
0.149688
-2.5924
0.468438
1.95639
-1.27359
0.00852345
-0.856797
-0.505216
0.423214
0.265531
-1.0849
0.429323
1.38017
-0.119431
0.415856
-0.805523
0.548382
-1.37969
-1.97258
0.189334
-1.57295
-0.668875
0.349813
-1.36196
-1.98025
-1.65108
-1.24324
-1.40278
0.950162
0.245164
0.0236414
-1.44474
-0.646944
-0.471167
-0.997621
0.149676
0.414067
1.4223
2.03564
0.569417
0.36553
-1.00924
-0.133556
-1.79911
-0.232203
0.331294
-0.466296
0.842288
0.283587
0.662078
-0.327943
1.47639
1.14707
-0.747964
-1.13422
-1.51434
0.179698
0.355504
-2.39186
2.29263
1.61026
-0.91744
-0.364842
0.301207
0.709152
-0.302137
1.28007
0.39094
-0.934287
2.2319
-0.129868
2.61168
3.43673
-0.386301
-1.47796
0.206306
-1.95722
-1.12134
-0.980187
-0.385035
6.5074
-1.13217
0.161698
-0.388634
0.238345
0.337129
-0.541357
-1.47508
-4.07845
1.31251
4.66202
2.31328
0.278888
-0.87454
-0.654515
0.0402241
1.75436
0.113027
2.7414
-0.432666
0.192433
0.694945
-0.391358
-0.987347
2.43101
0.542301
-0.792623
-0.933961
1.09741
-1.20107
0.11501
-0.944752
-1.28248
-2.29084
-0.905001
-0.0926652
0.222413
-0.0552952
-0.0883341
-2.1727
0.534085
0.290692
0.377961
-0.198242
-1.09387
-0.322073
-3.32476
-0.979687
1.40836
-1.29524
-0.50536
1.32951
0.577623
-0.107024
-0.483076
-1.18093
-0.157128
4.12055
-0.339458
-0.457964
2.04831
1.0898
2.10171
0.898512
0.451797
0.484187
1.53706
0.126666
0.0253317
-1.04266
-0.135645
-0.457574
-1.60651
-1.99047
1.91164
0.480092
1.10198
0.929572
0.733236
-1.1667
-0.246963
-0.80525
-1.8128
0.998842
-0.0737681
-0.0367444
-0.380329
1.51363
-0.436884
0.366116
-0.932246
2.62934
-0.955712
1.98153
1.94239
-0.689553
0.20607
-0.986399
0.599691
0.0819805
-1.49989
-0.556099
6.1259
0.584669
-0.652992
0.220863
0.609435
0.302642
-0.180978
0.573825
-0.235982
0.150102
-2.061
0.592979
-0.337437
-0.631489
0.587087
-0.428985
-1.41206
-0.240602
3.40583
-0.355949
1.88717
-0.989349
0.715344
-0.316634
-0.0365861
1.06508
0.751084
0.0029
0.0709
0.0604
0.0112
0.0661
0.136
0.0696
0.062
0.139194
-0.242251
-25.9053
-0.0439149
0.345926
0.206776
0.146181
-0.0898681
0.586825
0.144033
-0.109351
0.275261
0.0246612
0.1549
0.430988
4.53265
-0.483285
0.189473
-0.680618
0.557996
0.0102815
0.504019
-0.726955
1.22409
0.303976
0.0304304
0.927946
-0.155402
-1.1695
-0.670849
0.0851466
-1.81287
-0.344763
0.567207
1.97789
4.72034
1.34537
-0.013175
0.186148
0.625561
1.25027
-0.200346
-0.353879
-0.600791
7.54058
0.397494
-0.0489331
2.37102
-0.119777
1.70079
-2.29217
0.855779
-1.25862
0.951532
0.0910366
-0.0805108
-0.486475
-0.569287
0.864192
-0.311492
-2.00139
0.23576
0.194567
-0.253501
0.629388
0.226498
-1.10006
0.698179
0.985821
1.13786
-0.684166
1.29439
1.16764
0.592411
-0.431726
-0.945027
-0.981208
0.61276
-1.78511
1.42643
-0.976644
-0.758039
-2.25099
0.419366
0.347292
1.98965
0.352795
-0.630358
-0.113195
-0.510961
0.330624
-0.727867
1.44762
0.947672
0.580348
3.65233
-0.460382
-0.171579
0.787621
-0.170692
-1.61921
-1.92841
3.02537
-1.39606
1.05637
0.452255
1.40371
-1.02639
-1.6713
4.98526
1.79534
-0.795301
0.10252
-1.58808
1.3683
-2.15455
-0.0572509
1.86837
0.231417
-2.1403
1.04929
0.363619
-0.493939
0.225107
-1.37663
0.538777
2.04026
1.335
0.405435
-0.856767
-1.64576
-1.33563
-0.321749
-1.27878
0.461461
-0.312188
0.00500352
-0.464765
0.357274
3.58838
-0.824306
-1.68717
1.41401
-0.500617
0.802649
-1.26923
-0.604349
1.87732
-2.28319
-0.135878
1.4835
0.0152646
-1.49686
-0.720337
-0.0390857
1.2448
-0.123094
-0.0253694
0.520028
-1.67898
-3.0418
-1.31512
-0.84821
-0.368771
-0.69707
1.29561
-1.67489
-0.667772
1.75056
-0.294061
0.44535
1.16714
-0.565189
-0.238431
-0.95214
-0.165708
-3.20453
0.511519
1.03198
0.0819649
0.486345
1.0106
-0.717425
4.35349
-0.776654
1.11944
0.610157
1.20755
-0.208753
-0.36216
-0.236384
-1.21333
1.80706
0.903342
1.27645
-0.807556
-0.844154
-0.956359
-0.484388
-0.791856
0.10881
2.63862
0.634675
-0.228159
0.0770116
-0.906408
-0.749222
0.964677
-0.768579
4.32344
-1.14869
-0.852124
-1.62899
1.11866
0.622614
1.18176
1.50599
-0.902428
1.58594
-0.468248
-0.520175
-3.46994
1.31217
0.990772
0.657369
0.65307
-1.23444
-0.0530943
-1.33045
-2.07222
-0.0734598
-0.874881
0.00301588
-1.7935
0.452057
1.0274
-0.612059
-1.49392
-1.48413
0.986026
-1.35826
-0.722693
-0.117582
0.363946
0.43508
-0.527413
0.804231
-0.332895
0.0883366
-0.925021
-0.236383
-0.189551
0.1335
0.0897
0.1468
0.0583
0.008
0.1332
0.0155
0.0796
0.220525
-2.35271
-1.01998
-0.842962
-1.25283
-1.34502
-0.972444
-0.1906
-1.13866
-0.754687
-0.682657
25.9258
-1.20315
0.140782
0.172905
-0.29022
-1.17109
-0.393331
0.591304
0.670025
0.559531
-2.42296
-1.81486
-0.826305
-1.81024
-3.92853
1.32853
-1.17093
1.93257
-0.650252
2.0259
-5.17277
2.01826
0.66014
-3.32479
-1.97087
-1.17616
-2.09803
0.440227
0.0427415
1.99972
-1.27942
3.25349
2.66294
1.11654
-0.805563
-0.173521
-0.441661
-0.65296
-4.26229
-2.64259
0.399607
1.97987
-0.186908
-1.42863
-4.03811
3.65767
-8.41144
0.530496
1.8984
0.137782
-0.32835
0.435595
0.474345
-1.29559
-2.91873
1.06391
0.884437
0.870072
0.203974
-0.340044
-1.58515
-0.292471
0.10702
-1.79724
-4.15999
2.52328
1.15614
-2.11864
2.89202
0.387753
-1.1718
-0.333022
-2.98662
-0.954793
-3.28521
-6.0972
-6.39883
2.18701
-0.641019
1.2964
0.203221
2.25238
-0.114102
-3.49167
-5.41014
0.287348
-2.53359
-1.47077
-4.45834
1.00168
-2.06483
0.141705
1.32148
2.57506
0.194349
-0.328936
2.36411
-0.417363
-0.00576789
-5.20615
1.85494
1.66884
1.60336
4.33668
0.290165
1.85718
1.42113
0.661921
0.428671
-1.98121
3.25137
-1.47182
0.624993
-3.54601
-0.277883
0.481913
-0.864143
0.891715
1.49903
1.25416
-2.40457
-1.45563
0.76645
-1.13626
-1.66132
1.82472
-0.177299
1.25802
-1.9311
2.49985
0.248476
2.03577
-0.654059
-0.102292
-0.534253
0.089946
-0.136903
0.407204
-1.37385
-1.63526
-1.81435
-2.42406
0.710432
-0.519199
-0.914797
0.106923
1.65005
2.29854
-0.632457
-0.966816
-4.6768
3.52106
0.213436
1.42679
1.32767
-5.90586
-0.176264
0.652035
-2.2459
2.19529
-1.20423
-4.29071
-0.894022
0.261367
-3.41574
3.28965
1.37547
-0.305087
0.168541
-2.5492
0.199016
0.272999
0.746111
2.57765
-3.32476
-0.61208
0.652321
2.67766
2.52465
1.65636
-2.49102
0.387831
0.733934
0.122898
-1.15844
-1.91406
2.30968
-4.13897
-3.17962
-0.343767
-0.385261
-1.91687
2.52888
1.56868
-1.26982
2.59932
-0.525109
-4.11284
0.77684
-2.09315
1.96123
1.89375
-3.67255
-1.29653
2.80156
-0.024839
-0.975654
-0.999881
-3.60491
-0.468128
-2.36828
-2.13507
-2.10704
-1.19463
-1.44281
2.0492
-1.88904
2.04998
-1.12233
-1.09649
-0.00786506
0.0946488
-1.17453
-1.46016
2.91266
-0.198436
0.00708934
-1.52947
0.283004
2.4469
1.22382
-2.54768
0.0823357
1.6568
1.36376
1.28115
1.90655
0.303152
2.66177
1.28968
-0.835235
0.2071
0.1326
0.114
0.0012
0.0913
0.1408
0.109
0.0615
0.388292
0.365475
0.258173
0.00995535
0.963774
-16.8162
1.1195
0.0580776
0.463517
0.486855
0.0533217
0.153416
0.194191
-0.14538
0.189264
-3.15177
-0.00620819
0.0206718
5.56393
0.598677
0.00193834
0.821058
-0.00474074
1.04062
2.29264
0.430074
1.06152
0.141848
-1.26068
0.719464
0.724993
-0.986258
-1.17953
-2.81431
0.601118
1.64662
2.93656
1.12196
0.572813
0.604307
-0.543097
0.434221
-0.379301
-0.506435
0.648834
-0.601954
-1.35805
0.884923
2.08649
1.06993
1.86042
-1.10642
1.26842
-1.06636
1.89386
-1.38818
0.251479
-3.07195
-2.9627
-0.370642
1.73619
0.365176
-1.86013
-0.96549
-2.08746
0.707694
0.0462781
1.19077
3.35419
0.168541
-0.0462183
0.442894
1.06056
0.0935813
-3.19563
-0.47773
-0.333995
4.21572
-1.01315
0.693442
0.275353
-4.42018
1.70612
-0.429221
-1.21191
0.55528
0.0645839
0.665425
-0.968471
-0.261266
0.348474
-1.94435
-3.31156
-1.05017
2.51854
-0.0492634
1.54033
0.584379
1.62103
-0.388699
-2.0829
-0.639277
0.0485823
-0.506859
0.322328
-2.76466
-0.188915
-0.407045
-0.958936
0.639594
-0.722638
1.30492
3.84039
-1.08064
0.277635
-3.16816
-0.884976
0.877321
1.73626
0.286021
0.516
-0.362817
2.17257
-4.13099
-0.923198
2.86339
-2.7493
-1.16395
4.2492
5.37049
2.18701
-0.704702
-0.340004
-0.682425
-0.947375
-1.53557
0.313448
0.994306
-0.212166
2.5691
-0.281913
-0.533137
3.36282
1.08004
-0.214983
3.3915
-1.74428
-1.8837
-1.03156
0.106351
-0.0294256
0.0613416
0.972063
-2.03413
-2.41064
1.47063
0.954957
-0.414815
0.709964
-1.54044
-0.952319
0.707721
-1.32918
-0.778715
-3.29828
0.45758
-0.351389
-0.140033
1.36521
-1.98125
0.0569578
-1.93737
-0.160618
1.55428
1.13176
-0.583984
-1.86562
1.65182
0.856413
3.17927
0.349914
-0.98771
0.791638
1.03721
3.75848
-0.170729
0.102349
0.596555
-0.0108171
-0.686711
1.32154
0.237959
2.62452
-0.132121
1.80515
0.0739219
0.301709
0.811438
1.28008
0.0103578
1.74057
3.03252
3.32501
-0.601802
0.0106607
-0.099741
-1.44425
1.67047
1.50094
-0.968655
-2.6535
1.02534
-0.283663
-1.15224
2.98101
-2.06098
0.324552
-0.63237
-0.499263
0.181196
-1.63292
-3.15996
1.5481
0.288272
0.765672
0.496639
0.628496
2.62399
0.598229
-1.444
0.62
0.359737
1.15268
0.622349
-0.436687
-1.27394
-1.08783
1.04474
0.101648
0.0295697
2.51806
-0.716033
-0.355513
-0.902874
-0.1154
0.0846539
-0.361336
-0.719824
1.04168
-0.62219
-2.72382
-0.317614
0.111
0.0388
0.036
0.0212
0.026
0.062
0.1061
0.0016
0.17585
1.19153
0.376762
0.817836
0.859356
0.479361
0.216964
0.368259
0.3806
-7.37691
0.384239
0.972703
0.755329
-5.80455
0.678579
0.0902589
0.72783
0.655782
-0.328575
0.998934
0.834917
1.01684
1.44427
1.76092
0.0862026
0.522602
-0.531283
1.71175
0.259998
0.289067
1.91191
-1.78212
2.13135
1.11159
0.366386
1.56703
-0.425155
-0.178496
1.09354
-0.229163
1.05886
-0.0791019
0.780031
3.74851
2.83921
-0.263374
-1.0772
3.24866
0.792049
0.0198858
1.85721
0.0575794
1.85234
-1.56522
2.99561
-0.862164
-0.824935
-2.65346
0.863863
0.516913
-1.60411
-0.244199
-0.300336
-1.60229
0.569355
-0.108626
-0.267797
2.3513
3.141
0.374363
-2.36753
-0.902465
-2.21927
1.90279
0.0235411
-2.39361
-2.52059
0.76406
-3.37039
-3.98054
1.25992
1.67812
0.557591
-1.72625
-3.29102
-1.29038
-1.20052
1.8034
2.43328
-1.52541
1.57437
2.412
-2.66683
2.3068
-0.576196
-1.73993
1.62203
-0.00224499
0.214685
1.68466
1.39436
1.07497
-0.733434
-2.90805
0.731546
-0.211015
5.00801
2.18957
-1.35607
2.74878
1.03057
2.09975
-1.15021
-0.0831269
-0.606255
-0.105499
1.22901
-1.01981
0.368629
-3.05267
-0.908876
-0.884859
-0.603322
-3.56717
0.517545
-1.55757
0.21345
0.188959
0.809013
1.2097
0.0436139
-1.5999
-0.406752
1.70419
1.13157
0.136003
3.32148
1.39679
-0.000151278
-2.39737
-0.000557226
1.34281
-0.220169
-2.92606
-0.82412
1.34051
-1.9445
-0.740963
1.18647
0.409856
1.17144
0.228051
0.443179
-2.77575
0.810068
1.85286
2.15162
0.490527
-0.775697
-0.325146
0.205017
-1.86162
0.18303
-1.28284
1.49056
-0.592571
2.20923
1.05497
1.35809
1.02455
-0.497777
-1.01444
1.40141
1.26684
0.922415
0.31517
-1.09664
-4.02447
-1.18085
2.49721
2.34788
-0.343033
-2.26773
-0.222539
1.62463
-2.56601
-0.551181
1.29937
0.206179
1.85661
2.22276
1.00317
-0.717427
-0.182302
0.260614
-1.28533
1.00579
1.94705
0.0947278
-0.424653
-0.714345
0.198335
-0.964936
2.52776
-0.700803
-1.98171
0.21332
1.66952
-1.20651
3.69386
-0.598476
-0.0196746
-4.99511
-1.20641
1.84414
-0.748623
-0.97473
0.914387
-1.28792
0.136902
1.96494
0.900839
0.43583
-2.81423
-0.784353
1.72972
0.900402
-1.11912
0.979064
-0.41227
1.75434
-1.8704
2.02681
-3.77764
-1.11977
1.17797
-0.454489
0.95219
-1.29543
1.07944
0.734419
-2.40793
0.432022
4.35059
-4.07485
1.62804
-1.53267
0.760678
2.12852
-2.06478
-1.17707
2.01153
0.002
0.1395
0.1518
0.1301
0.0545
0.086
0.0118
0.0529
-0.660008
-0.0139134
0.558242
0.167003
-0.180254
-16.7505
0.726116
0.72271
0.159953
0.108279
0.478811
0.0606319
-0.0261029
0.487421
0.313942
5.27373
0.154487
1.29235
0.200879
-0.291141
-0.137264
0.44768
0.134918
1.3099
3.38337
-0.142847
0.828293
-0.495143
-0.728414
0.464505
-1.86962
0.0970569
0.474172
-1.31122
0.897483
-0.414907
1.13304
1.0001
0.60662
-0.511835
-0.173378
-1.62647
-1.58119
0.346399
-1.99398
-0.120052
0.888152
-3.97791
-0.25873
4.06863
0.430209
-0.202625
-2.97472
0.419961
0.128412
2.22109
-0.314756
0.628761
0.747899
2.324
2.53894
-3.65985
-1.77195
-0.208624
0.0621028
1.52547
-0.575673
-0.175371
1.90138
1.23
0.241786
-0.362132
0.843843
0.797608
0.327432
0.379317
-3.00269
0.878015
0.755551
0.754646
1.76585
-0.251928
-0.0682372
-3.15027
0.812861
-1.8143
-1.27942
-3.01219
2.38905
-1.2464
-0.368294
3.79014
-0.126119
-1.32016
0.827839
1.13222
1.08065
0.0832669
0.24305
0.688062
-0.0349695
-0.965283
-0.468004
-1.81055
-1.42321
1.34602
1.40048
-1.17021
1.66337
1.43196
0.848614
-0.145386
3.06997
0.113316
-3.64163
-0.341698
0.659236
-0.00432112
1.74366
1.32553
-2.13716
0.860124
1.57955
0.256316
2.33497
-1.37106
1.52371
-0.397128
-0.848284
3.11936
0.651021
-1.05656
-1.40539
2.89487
-0.0147036
-0.888823
-1.31357
-1.08571
-1.06196
0.604558
-2.28379
-0.0225199
3.63935
0.559257
-0.940389
-0.0646171
0.559511
-0.417655
-0.194195
0.903153
-2.01755
0.804929
3.41315
0.587035
1.97154
1.0707
-4.61969
-0.613567
-4.04453
1.32339
0.551008
-1.24744
0.49811
0.335833
-0.93867
-2.5951
-0.889423
-0.404613
0.973755
1.34284
0.208272
-0.809556
0.255291
0.544361
-3.6626
-0.840719
1.27234
1.89171
0.115812
-1.16551
1.12947
1.46437
0.423488
-0.840325
0.234528
0.980078
-0.743305
1.96701
-0.173283
0.522017
0.668566
-2.20003
4.17476
0.875462
-0.643728
-3.05429
0.727395
1.81832
1.06864
-0.341608
-1.21035
-0.581942
2.26004
-0.0638024
0.6365
-1.44928
-1.8924
-1.14754
2.01741
0.846593
-0.254917
-0.194515
-1.62198
0.578784
0.626962
0.28204
-0.416071
-2.42609
-0.492484
-1.24969
0.540188
1.04404
1.95621
-2.24342
-0.623259
-0.237688
-0.826628
0.316657
-2.40178
1.2204
-3.07343
0.267238
-0.392138
1.09116
0.779299
-2.28147
1.66965
-1.6545
4.40116
-1.84575
-0.490658
1.51535
-0.986883
0.473611
-0.350293
2.2626
1.39335
-0.72373
-4.42682
-1.89554
1.23234
0.894803
0.0883
0.0436
0.0219
0.04
0.0224
0.1016
0.0386
0.1516
0.286517
-0.219218
0.634132
0.00293894
-0.16064
0.203673
0.341885
0.144628
-19.0769
0.187572
-0.309575
-0.0947261
0.273746
-0.371999
-0.348376
1.51137
-0.12988
-0.130375
3.50507
-0.455275
0.486067
-0.0500559
0.109748
-0.393505
-0.18513
0.032749
-0.54615
-0.160903
0.201551
1.76047
0.691775
1.61719
-0.801492
-0.203474
1.45318
-0.183178
-0.665145
-1.39314
-0.416972
0.191353
-1.90433
-0.0675731
-0.584821
-0.499039
-1.5572
0.697851
0.306947
1.80998
2.34907
-0.57912
-0.487856
-0.922385
0.163327
-0.489081
0.091574
-0.763771
-0.474126
-0.657007
2.53515
-0.968743
0.0662917
0.568911
0.327447
-0.328301
-0.721772
-0.553101
-0.337521
-0.978111
0.59419
2.62338
0.301772
1.36173
1.55482
-0.149593
2.86771
0.32801
-1.40717
1.60669
-1.07509
-1.57625
-0.663546
0.505704
1.09317
0.20229
0.994899
-1.31848
1.15747
-1.63507
1.23324
0.621523
-0.48828
0.073889
-0.793013
0.144442
-2.3763
-2.04964
0.275638
0.693704
0.484572
0.72731
0.553761
0.0826668
-0.333843
-0.561194
-0.697171
0.580689
-0.142606
0.161812
-0.892345
0.343468
-0.678219
-1.40108
0.0814468
0.3054
2.78317
-1.83911
-0.399535
-0.144019
-0.572962
-0.683239
-0.588982
0.260245
-0.689434
-2.01733
-1.43757
0.953393
2.43194
1.35178
-0.339466
1.89639
0.353377
1.60481
0.190249
-1.38202
1.03179
0.423862
2.21535
-1.41635
1.30426
-0.126763
0.749271
-2.23881
-1.07978
0.430125
0.664363
0.0330408
2.09923
-0.0311869
0.885287
0.716602
-1.53646
-0.0262102
-0.196
-0.647188
-0.989196
0.754411
-0.220082
2.223
0.557219
2.31824
-1.2576
1.73101
0.196256
-0.139253
1.63438
-0.366472
2.8043
-0.0377429
1.17197
2.18668
-0.431756
0.826535
2.66076
0.439379
-0.19422
-0.991967
0.101533
-1.22988
0.152762
2.05609
-0.607011
-0.558474
1.46049
-0.397275
0.141432
0.147175
0.236374
3.85918
0.915298
-1.13555
-0.925462
0.161942
-3.84366
-0.872328
-0.921776
-0.592659
-0.283528
-0.382496
0.484601
-0.292478
-0.869336
-0.297843
-1.14965
-0.954334
0.800284
-0.152333
3.80502
0.790198
0.474399
0.458824
1.93473
1.93027
0.532471
0.00877898
-0.98197
1.01729
0.149655
0.89122
0.868744
0.375884
-0.0374018
-0.512561
-0.713272
1.02145
-0.756423
0.204187
-0.351961
-1.72872
-0.481198
0.85877
-2.49221
-0.552877
0.872706
-2.90915
1.5209
0.170536
0.620011
-2.18722
0.647238
-0.388991
-1.55177
-1.14258
-0.707119
-0.423499
-0.259536
-0.216463
-1.13956
0.219018
4.45959
0.36699
0.432837
0.756715
0.0606
0.07
0.035
0.1173
0.0009
0.0182
0.3312
0.1632
-2.31862
-0.330612
-3.25996
-1.67976
-0.397109
-0.802283
-0.984373
-0.727424
-1.05101
-0.331382
0.0839337
-0.230048
0.157005
-0.454902
0.0646288
-1.47976
-1.26527
17.3185
-1.16075
-1.32602
0.506772
1.19447
-1.36466
1.35564
0.991181
1.21753
-0.751478
-0.482308
-3.23172
0.0327754
0.123128
2.84528
0.786522
1.12673
-1.97292
-1.12453
-2.43953
-0.575086
0.617371
1.35951
1.23814
-0.0895033
1.1504
-1.10208
0.286577
-2.34622
1.70911
-1.0754
-1.7286
1.40388
-0.806534
1.55131
-1.95598
1.59241
1.23165
-2.35938
-0.423674
-0.105909
1.81958
0.24887
-0.847427
-0.0446546
-0.0010645
2.1964
-3.03418
-1.26585
-2.39683
0.262832
0.972338
-0.490933
1.7348
-0.101584
-0.389683
-0.587689
3.00563
-0.169987
1.87797
-1.23162
0.413656
0.165427
-0.779727
-0.166017
-0.21526
-2.9876
-3.29309
-0.125211
1.02781
-0.481006
0.560814
1.6201
0.84346
-1.80693
-1.50003
2.14836
-4.60086
-0.0661024
0.306324
1.18341
0.588561
0.420247
-1.95371
0.948031
-0.996626
-5.14352
0.777944
0.335188
0.501895
-0.822673
-1.85654
1.05227
-1.54575
-0.935689
1.37006
-2.61072
0.0665299
-1.12274
0.0672021
0.804325
2.23391
2.07982
-2.18546
2.65696
2.98472
-0.150798
1.61298
1.7189
1.52689
-0.628497
-1.33916
-0.620399
-0.176322
-0.765608
-1.08099
-2.73155
0.313478
-1.1529
1.23186
-0.283395
1.33588
-0.463786
-0.686971
-0.33496
1.11178
0.353153
-2.5959
0.377061
0.367014
-0.907655
-1.95646
-2.20535
-0.345926
2.32884
-0.513926
-3.28699
2.17192
-1.82758
-0.600967
1.80187
-1.86724
0.734468
-0.684411
-0.498682
-0.21923
-0.622094
-3.16749
-2.38114
1.17505
-1.72177
-0.379112
1.62893
-0.0100306
-2.71
0.954963
-2.83432
-0.855886
-0.225643
-0.176133
-1.30416
-0.4154
0.588012
-0.776981
-4.18902
-1.14016
2.67123
-2.30466
0.906021
1.36033
2.32582
-1.45902
-0.200247
1.44578
-2.0465
-1.56853
0.194725
0.787528
-2.95113
1.02939
-1.35537
0.309331
0.230282
2.25501
1.10186
1.14091
1.93101
2.67628
-0.636937
1.25572
0.504912
-1.98955
0.549235
3.07789
-0.183698
1.55355
0.450617
-0.449798
-2.47202
2.3785
3.02305
0.884262
0.896592
0.795029
1.54233
1.39293
-2.51522
2.06981
-2.26722
-1.00384
-0.265207
1.0168
0.62901
1.2637
0.629825
-0.684403
-0.0966454
-0.312759
0.338415
1.27085
0.385529
-0.216888
-0.082693
1.39773
-1.7372
-0.579343
-1.9998
0.750215
1.81551
0.0122207
1.71244
1.52515
-3.45108
-0.255436
-0.823253
0.0892
0.0099
0.1754
0.0401
0.117
0.0678
0.0823
0.0292
-1.56122
-0.93795
-1.48263
-4.40531
30.0032
-3.29502
-0.572602
-0.13582
-1.27331
-0.944447
-0.107415
0.258377
0.0448002
0.206634
-0.828621
-0.643515
-2.06539
-0.840492
-2.17704
-2.60296
-0.655013
-0.85571
-3.32824
0.318221
-0.620936
-1.09648
-2.64509
-0.101003
-0.774302
-0.543769
-2.19382
-0.387001
-2.11517
1.22701
0.819931
3.51817
3.51241
1.23222
0.725593
0.131433
-2.4762
1.0129
1.12894
-2.0888
2.2421
0.673449
1.04031
-1.25098
0.896897
-0.945185
3.74092
-0.351987
0.217745
0.650469
0.244392
-1.02478
1.73428
1.05046
-3.67727
0.769673
-3.0413
1.38967
-0.792331
1.80565
-0.884325
-4.40204
2.23815
-0.0764048
-0.272634
1.45596
-3.91285
1.2092
-0.793176
-3.7555
-1.94165
-0.254293
1.65099
-0.463423
-0.487184
-4.68336
2.06986
-0.0926256
-2.19571
-0.345975
-1.69162
0.86089
2.31862
1.59375
1.17647
1.94262
0.350038
0.314021
-2.17667
-6.55293
0.712137
1.07114
2.25151
-1.64136
0.489856
-2.21362
1.29255
-1.68723
1.13687
2.23336
0.832364
-0.232626
0.725847
-1.98376
2.97876
-1.78868
0.0770246
1.11835
-1.83459
1.07008
0.846881
-2.60322
-1.65696
-1.42769
-1.3875
0.993475
0.790023
-0.553677
-1.23562
1.60945
-1.39272
-0.0491677
-2.01779
-0.264743
2.55668
0.438751
1.15977
-0.261665
-0.535898
-1.20973
3.66712
0.758395
0.738738
-0.322242
-3.82648
-2.31511
-1.67716
-0.0993234
0.653284
2.25846
-3.04622
-3.31254
0.418147
-1.8986
-4.68485
3.39318
1.5148
0.302276
-3.8562
-2.3732
0.220617
-1.03444
-1.34426
0.991712
-0.455927
2.24656
-1.48078
2.04427
-0.766614
-0.238173
3.06476
1.13565
-0.768925
3.63814
-1.62144
1.9815
0.900933
-0.747309
3.67292
1.10886
-1.6927
1.57371
0.311805
-0.301599
2.54169
1.21814
1.84385
2.1942
-1.01
-0.769316
2.12718
0.560305
-1.31588
2.33932
2.31246
0.222073
2.43222
-0.269383
-0.725065
-0.237689
-0.13694
0.211587
0.690814
-1.2591
0.165589
1.90599
-0.772085
-0.629995
-3.58674
0.819908
-4.17101
-0.851513
-2.32792
-1.42291
-1.425
-2.42914
0.678318
-2.83641
-0.478214
0.177845
2.56144
-1.66168
1.75389
-0.923076
-2.26108
0.264838
-0.707166
-0.742915
0.665324
-0.330198
-0.57026
1.93241
0.850444
1.05101
1.88853
2.16676
-4.20417
1.7952
-1.02026
0.809152
-4.33448
0.475634
-0.275913
0.702118
-0.164738
3.4945
-2.0317
1.23872
3.30699
-6.12952
-0.419262
-0.0093444
-1.6448
-4.09316
0.461761
-3.20621
0.855242
-0.484151
0
0.0659
0.0394
0.0052
0.1832
0.0361
0.0086
0.0104
-14.498
0.331371
0.248279
0.179065
0.208468
0.200423
0.0119619
0.0308735
0.0928863
0.503715
0.109309
0.181925
0.260935
0.177833
0.879125
0.105346
0.737926
0.0262294
1.18248
-0.111487
0.337943
1.11099
0.817758
0.445987
0.446905
0.266245
-0.172254
-0.0717454
0.104227
-0.392895
-1.19597
1.48617
0.600984
-1.18852
2.79646
-2.02289
0.244883
-0.438582
1.71696
0.0924477
0.270126
0.0907611
-0.128806
-0.855082
-1.81262
0.0832171
0.769753
-0.545974
0.399903
0.539816
0.564417
0.408435
2.0992
2.64944
0.130657
0.392376
-1.57029
0.0602863
0.741959
3.29325
-1.15254
0.810785
1.76046
-1.64541
-0.132502
-0.297513
1.75301
-1.13588
-0.159583
2.48393
-0.529429
0.0922509
0.595121
-0.328899
3.67483
-1.8905
-0.880809
1.09837
0.0137421
1.92524
1.11181
0.211043
0.931828
0.330492
-0.578142
-0.848571
5.59126
0.288365
-0.453335
2.35169
-0.517192
1.30598
-1.31761
-0.201941
-1.98967
-1.12094
-1.12991
-0.129468
-0.118042
0.179581
0.612428
2.10643
0.108353
0.474893
-1.06933
0.659285
-0.444396
0.196031
-0.436096
0.716848
1.68447
1.89687
-0.91228
-0.135386
-0.944558
0.990667
0.239471
0.927771
1.86302
1.54162
1.98723
-0.536036
2.73691
-0.451281
-0.0605431
-0.582864
0.273399
-0.924849
0.175497
0.232233
-1.88618
-1.42491
0.576731
0.0790787
-0.232561
-0.0781962
3.17338
-1.47575
-0.394382
1.58092
-0.159852
0.704268
0.210997
-0.395142
0.362024
-1.08778
-0.774011
3.81138
1.23504
-0.267476
-1.24741
0.713233
-0.429996
1.0704
1.49363
-0.8814
4.55242
1.35495
0.967633
0.176875
0.819104
-1.04782
-0.497754
-0.584193
1.87405
-0.612678
-0.571968
-2.27247
0.974899
0.848462
-0.730906
3.40245
-0.461488
-0.289104
-0.567269
2.20462
-0.0641061
-2.25204
0.177937
-1.08722
-0.594736
-0.541837
1.30645
0.146273
-1.36755
0.892179
0.341079
-0.534653
-0.10301
-0.395719
1.23603
-0.20081
0.0624802
-0.665512
0.0896636
-0.307885
-0.429104
-0.857753
0.298789
0.0819531
-0.530752
-0.512702
-0.984445
1.53817
0.854428
0.681728
1.35442
3.52924
2.80908
2.03704
-1.20021
-0.785729
-0.591939
0.0140675
-0.246833
0.736262
-0.95867
-0.0296782
-0.622012
1.75843
-0.235145
0.793872
0.443414
0.210061
-0.136751
-1.19982
-0.874785
0.196513
-0.793725
-1.34198
0.359202
0.20924
1.0453
-1.02808
1.93515
-0.390152
1.56236
-0.352858
-0.141649
1.67215
-1.32328
0.494293
-0.06273
-2.11068
-0.222894
-0.459486
-0.292526
1.09552
-0.277418
0.464832
0.970744
1.36533
0.0695
0.105
0.0144
0.127
0.1321
0.106
0.0587
0.0332
-0.819575
-0.54921
-1.44848
-0.543764
-0.759972
-1.11519
-0.229432
-0.224627
-0.229723
-1.2231
-0.354933
-0.00679748
0.121749
0.184504
21.7441
-1.08181
-0.319373
-0.238599
0.465487
0.264044
-1.25348
-2.08867
-0.3512
-0.0695635
0.817063
1.26601
-1.80318
-2.1196
-1.61683
0.0105057
0.971373
0.994055
2.27461
1.13532
-0.546045
3.17358
0.918251
-3.36376
0.0846785
-1.47986
-2.21248
-3.07852
0.966894
-1.22323
-2.8756
-1.25554
-1.09729
-1.42096
1.04561
1.69509
-3.40237
-0.0111958
-0.643464
1.2477
-0.928891
-2.23298
-2.15939
-1.64764
-2.08413
-3.2368
2.7262
4.44172
0.51466
2.13081
1.23159
0.223961
1.645
0.0895747
-2.5382
-1.89858
-2.6638
-2.31311
-0.623587
-1.4102
-0.0105823
-3.87207
0.336517
0.555317
1.62525
1.19827
2.07981
-1.32516
0.90982
0.351503
-2.4646
-4.21229
-1.72995
-2.29955
1.27292
1.03789
1.03991
3.61463
-1.7911
-2.19698
-4.35983
-0.255537
-1.90032
0.416659
-0.967063
-2.58263
0.371019
3.22439
1.9231
-0.126278
1.34465
-1.35458
-2.64267
-0.329073
1.19483
-1.73111
0.293442
-2.8643
-2.42351
-0.400646
-1.8778
-0.156545
0.54433
-0.243876
0.716996
0.908202
-3.1648
1.92926
2.8356
0.483855
-1.17982
-0.263215
0.275475
-3.25987
2.25558
2.38772
1.79057
-3.51577
-6.33165
-0.582816
-1.61895
0.266748
-0.245489
-1.70425
-0.463932
0.917801
-1.71164
1.30823
2.13494
0.433544
-2.45909
0.760685
-2.98378
-1.10024
-0.149874
-2.93054
0.491305
1.22346
1.5619
0.44973
-2.15742
0.179431
0.570451
0.41881
0.822298
0.199013
2.45487
-0.923652
-1.71262
-0.596105
-2.99326
-1.6358
-1.27293
-2.72902
-3.88042
-1.97581
1.68002
2.47368
-0.691945
-0.0429788
0.522908
2.26135
0.207239
-3.984
-0.445431
1.79227
-0.759055
-2.33306
0.40356
0.5565
0.238277
3.26592
-2.16539
0.629537
-4.34
-0.311357
1.12039
-0.233598
0.832216
-0.348609
-4.79812
-0.883272
1.24749
-1.68217
0.947665
-0.715218
0.179017
1.45826
3.16666
-0.81849
0.115372
-2.39947
1.56958
3.54466
-0.896623
-2.21602
0.675021
-1.43431
-0.0964821
2.6718
-3.38946
2.56113
0.0878269
-0.88398
-2.14205
-0.104918
-2.33123
-5.20233
0.797166
0.0781233
2.73156
1.82608
-2.38306
1.40058
-0.115701
-3.27362
-2.35361
-1.69387
-1.83247
-0.632617
-4.91407
1.42662
-0.0577541
-2.76436
-0.607422
-2.53479
1.09779
-2.62005
-0.226474
4.76465
1.02543
-6.48866
1.80878
-2.04866
0.47025
-2.60781
0.703624
-2.15789
0.0116
0.024
0.0382
0.174
0.0283
0.1461
0.0052
0.112
0.303511
0.969834
-7.66824
1.07289
0.734786
0.941636
0.469722
0.181473
-9.98607
1.07037
0.928374
0.098708
1.00516
0.52808
1.04029
-3.0702
1.42303
0.282677
1.16591
1.70857
-0.201037
-0.186454
1.81922
-1.07039
0.577184
-1.66077
2.12751
1.01073
0.349648
-5.06286
-1.19031
2.1656
0.680483
-0.0799881
3.37738
-0.930243
-0.348117
0.667337
1.28102
0.404044
3.78584
-0.16899
-2.59065
1.92123
-0.460438
4.21526
1.8195
-1.6432
1.75869
-2.26435
1.96159
-3.93301
0.326911
-0.578646
1.62901
0.581185
0.111055
-0.545415
-3.81505
-1.25423
1.78355
-1.31848
1.31311
-1.5006
0.496816
-1.09987
1.43366
-2.52541
3.42165
3.74545
-1.75045
-0.438203
-0.0473023
-2.00753
2.49604
0.179254
4.12118
-1.01831
0.697169
6.12575
-0.327366
3.44196
1.80638
-0.646737
-0.274282
1.43168
-1.86197
-2.51186
-1.57584
-0.566019
-0.424198
2.59471
-2.76744
0.139326
-0.142249
0.631632
0.759805
3.76514
0.912819
0.164622
-0.887865
-1.45948
-2.82517
3.33315
1.39031
2.60394
-1.1963
0.710699
1.49354
1.30488
3.18482
0.449442
0.102576
-0.336385
0.0455632
2.28574
-0.829163
-2.36635
-0.0245275
-2.43313
-2.98055
0.315323
2.28335
1.50912
0.575889
1.52961
-2.822
4.60979
-2.65108
1.80132
-2.6659
-2.98256
4.25996
-1.93435
-0.887615
-1.34833
-1.3338
1.88627
-1.41921
2.58223
-3.52427
0.878805
-2.08019
0.0240449
-1.02413
-1.04777
-0.335645
1.90539
1.39546
2.15169
-2.68366
1.39233
-0.538787
-0.174386
-2.33289
-4.4056
1.46365
1.73717
2.21238
-0.189988
0.345466
-1.59456
1.18496
0.672862
-1.44224
2.84602
0.350257
1.38779
0.250205
-1.09835
0.76698
-0.5905
-2.15185
1.99273
-0.29558
-0.484229
0.225605
-5.09628
-0.268226
-1.26049
0.359902
1.37678
0.886852
1.73101
0.313823
-2.0534
-1.1643
2.35228
-2.61039
-1.90167
0.561093
1.19376
2.50276
0.551518
-0.233123
-1.1115
-0.0430004
-0.0654928
2.85399
1.70642
0.231589
-1.10059
0.0703278
0.28216
0.363404
-1.00856
-1.75703
-0.968623
0.863237
-0.148009
1.37489
2.63364
1.75598
-1.73493
1.30672
1.9813
4.78825
-0.162328
-1.2312
0.853106
2.24127
-0.83654
3.02831
2.07135
-0.360811
-1.65501
-0.298018
0.75499
3.14654
-0.0939201
5.17913
1.84582
-1.53655
1.37231
1.08649
-0.196159
-3.48146
1.9228
-0.777925
-1.18734
3.62722
1.04092
1.18991
4.4219
-0.154588
0.509343
-2.45612
2.85063
-1.15658
-6.28465
0.971087
-1.96507
0.0048
0.096
0.0652
0.0356
0.08
0.125
0.0586
0.0327
-0.73749
-1.68771
-0.767197
-0.440613
-0.553936
-1.00241
-1.34551
27.0342
-3.16937
-1.06694
-0.304016
-0.500712
0.00271647
-1.2744
-0.178077
-1.56576
0.207252
-0.399863
-0.856948
-2.46736
-4.64549
-2.09899
-2.24551
0.22836
1.13182
0.474486
-1.22814
-0.658155
0.41494
-0.714499
-2.19848
-2.97286
-4.14766
0.812584
3.5053
-3.43395
-1.80112
-0.399736
-4.76471
0.143513
2.00436
-2.35043
1.7045
-0.654566
3.40046
-1.21527
-3.6249
0.330715
-5.33799
-4.90007
-0.998944
-2.64474
-0.201168
0.851232
1.91364
0.706766
-0.431059
-2.7315
3.55181
-1.11605
2.13665
-1.29065
-1.46022
0.860117
-5.57502
1.53991
-0.275603
-0.354185
0.837487
-5.99377
-2.20318
-2.08363
1.35203
-0.616991
2.82645
-2.6143
1.13288
-2.12946
-0.272043
-2.1448
-0.799163
-3.94296
2.53446
0.646139
-0.578726
-4.08263
1.60361
-0.0645485
-0.117636
-0.540071
-5.02148
-7.6209
0.950096
2.12202
-2.34277
-0.175031
-2.21872
-0.505992
-1.0959
1.38775
1.28418
1.55955
0.352568
2.25585
0.401937
-0.50622
1.59749
1.67461
-0.419372
2.85606
-1.86393
2.34203
1.50579
0.208011
-1.73528
2.42575
-1.02968
0.617475
1.05836
-5.13445
-1.47222
3.11919
1.36317
2.74863
-0.988216
0.680715
1.16398
1.92993
-0.749573
-0.652072
0.369796
1.31823
-0.852981
-1.58516
-1.19501
1.41472
0.460908
1.20789
-0.342915
0.801229
-1.52141
1.34939
3.23146
-3.45974
0.620014
-6.39478
2.7953
0.928943
-2.18419
1.96747
-0.391917
-2.21232
-2.89529
-4.23149
1.61351
1.80665
1.99993
0.106633
-0.327891
-3.89197
0.100493
1.18141
2.82497
-2.0273
2.09621
-1.0218
-0.735853
2.77675
0.622938
-3.33205
-1.98555
-1.12159
-3.58432
0.607317
-1.34163
-4.37364
-4.61079
-1.70702
-2.47405
1.64587
-2.45486
-0.235386
0.958663
1.33719
-1.77971
1.35712
0.188791
-2.50285
-3.51493
-0.317603
1.99049
-0.0942193
-0.49416
0.23947
0.0205186
-1.90691
-0.645399
1.36502
-1.72955
0.538651
-1.31686
-7.08209
1.54006
-0.753509
0.918961
1.24014
-4.59756
-0.438313
1.07355
1.79188
1.99833
-1.42664
0.397964
2.09545
0.97276
0.572883
3.44286
-1.58382
-0.484863
2.22351
-2.18967
-1.82923
-1.24134
1.65881
2.68651
1.20784
-1.83816
-0.290961
2.09435
-2.44118
-5.99922
-2.98012
2.14754
1.07205
1.07072
5.18381
1.67393
0.938475
1.59332
-1.06133
2.41152
-0.223191
2.07535
2.37935
-2.41672
-0.625367
-5.68082
2.3028
4.57623
-0.619435
0.367814
1.56041
0.0006
0.0944
0.1032
0.0674
0.0171
0.1576
0.1721
0.0184
0.623562
0.0101816
0.21008
0.128802
0.128688
-0.0580885
0.319865
0.135811
0.523545
0.0697333
-15.4722
0.436443
-0.509604
-0.0732641
0.373021
0.0740118
0.251606
0.30258
-0.159452
-0.115255
8.5125
0.877854
-0.269199
0.587969
0.00297483
0.536528
0.159691
0.315457
0.449678
-0.881122
0.117936
-0.535793
1.63053
-0.161138
-0.991178
0.940442
0.0122417
-0.296571
-0.133992
-0.490951
0.550885
1.18749
-0.267808
0.165911
-0.760496
0.547851
0.869345
0.44482
1.49302
1.05166
-0.0481864
-0.0690842
0.224573
0.782997
1.01336
0.0202029
1.03371
-0.392518
1.96483
1.11492
-0.738921
0.998483
-0.248494
0.541725
-0.646432
0.168951
-0.501969
1.6611
-0.321198
0.425384
-0.917429
-0.797995
-0.851464
-0.129836
1.20883
0.681827
-1.15597
0.122593
-0.710037
0.412659
0.494839
-0.305037
0.117493
1.48649
0.36862
0.0622875
-0.350753
-0.513404
0.511398
0.323798
-0.381524
0.0349243
1.26168
-2.26334
0.926887
0.701847
2.76869
-0.328166
-0.224777
-0.58429
-0.0925358
0.578152
0.197692
-1.87113
-0.833634
-0.708111
-0.655251
0.532903
0.613519
0.0383716
0.689623
1.29858
-0.0580706
1.33165
0.903343
0.595101
-0.902082
-0.172426
-0.562439
-0.828512
0.830404
0.283072
0.989245
-0.40216
-0.0683975
-0.215535
0.451305
1.55862
0.297457
-0.00242072
-0.724197
-2.7247
-0.876624
0.458632
0.617377
-0.289824
-0.03763
1.48757
-0.315163
-0.53799
-0.572074
0.0580389
-1.84591
-0.251747
0.846545
4.78968
-0.675488
0.867421
-0.0615167
0.614958
-1.34273
-0.794576
0.806203
-0.238064
0.353373
2.13279
0.63379
-0.852952
0.93491
-0.603909
0.67928
-0.178473
0.120268
-0.14313
-1.03517
-0.408877
-0.265986
-0.651876
-0.359321
0.158922
-0.433247
-0.0776391
-1.84593
1.96423
-0.840743
0.746117
0.800503
0.647934
-1.4084
0.95956
-0.0634542
0.0590816
-0.743565
-0.981494
-0.547082
-0.393249
0.961143
-1.13654
0.565682
-0.315957
0.520853
-0.453848
0.644859
0.899234
-0.334102
-0.0792936
-0.257688
0.96635
-0.635405
-0.0685066
0.520717
0.0775359
0.959469
-0.755088
-0.510803
-1.39302
-1.41537
0.689785
-0.306282
0.22607
-1.29453
-0.0522944
-0.615384
0.825321
-0.309239
-0.352866
1.69621
1.57889
-0.286812
-0.406521
-0.442012
-1.0356
-1.43727
-0.638099
1.82826
-1.27352
0.376435
0.00301586
2.6199
-1.03204
-0.612019
0.226343
-1.43123
-0.215522
1.51706
1.12491
0.30733
-0.267544
0.351247
0.409862
2.45394
1.12557
0.532325
0.676184
-0.330856
0.267121
-0.679361
0.716971
2.33272
-0.282446
0.332067
-0.700717
0.1376
0.0684
0.1074
0.0964
0.1284
0.037
0.0452
0.0435
-0.0243808
-0.335372
0.160637
-0.0362755
-0.0536411
0.23396
0.140756
0.273317
0.257795
-18.5058
-0.0326385
-0.0906665
-0.2018
0.306477
0.158606
0.475876
0.138857
0.0615044
4.43934
-0.197124
0.169699
0.471836
0.961788
-0.195894
-0.649308
0.854646
0.0336937
0.774375
-0.58212
-2.14641
-0.318548
-0.167546
5.12787
-0.189902
-2.08356
-1.05459
0.334897
-0.62425
-0.0831249
-0.714887
2.30411
0.271344
-0.105626
0.959794
-0.0471654
-0.717803
-0.456768
-2.32029
0.453331
0.839996
1.70779
-0.267055
-0.820588
2.64382
0.73714
0.487718
-0.923316
2.32922
-1.7889
-0.720476
0.149846
-0.0914358
1.50432
2.81303
0.519331
0.732515
-1.93643
-0.387169
1.06448
-2.36621
0.669068
1.75758
-0.45531
-0.255839
0.885824
0.198805
-0.560406
-0.466844
1.0674
-1.4234
0.741981
-0.369503
1.36921
-1.26929
1.77878
-0.0879994
1.38298
1.3895
1.10596
2.45285
-1.37934
0.104972
-0.365877
-0.283606
-1.21604
0.334837
0.089867
1.16306
1.88666
-2.12616
-1.666
-1.96172
1.06087
-0.70989
2.01752
-0.57322
0.256344
-2.04713
1.56894
-0.992271
-3.71931
0.125356
0.244811
2.30757
-1.33771
1.26204
1.32268
-1.09027
-0.429925
-0.0322161
2.4128
-0.269199
-1.07848
-0.241859
0.337636
-0.111459
-0.0290331
-0.258975
-2.47804
1.92029
-1.10703
0.518765
0.931878
-0.451961
0.230029
-0.211225
-2.19215
-0.46817
-0.0310705
-1.19841
-0.669578
-0.316814
1.57655
-0.532445
1.02528
-4.08752
-0.428495
-1.1479
-1.85577
0.757086
-1.58322
-0.311274
1.81353
0.131696
-1.64195
-0.706032
0.103801
1.40698
0.646973
0.378658
2.94456
-1.40427
0.652603
-0.161392
-0.322183
2.40249
-0.876931
1.61349
-1.07343
4.05504
2.26302
0.060073
-2.77065
-0.713521
0.769204
2.31351
-2.09458
-0.864302
-2.04299
-2.06864
3.03862
-0.0865874
-1.58823
0.589257
-1.22918
-0.406066
0.346306
-0.228792
-0.662603
3.42505
0.892773
-1.65813
0.904624
-0.536426
-1.07896
-0.352428
0.753636
-1.89419
-0.950017
-1.54954
-0.867889
-1.23477
-0.819244
-0.547252
0.365993
0.285233
-2.39826
-3.047
1.11999
0.893544
-0.288803
-1.58066
-0.110984
1.47121
-0.695442
0.133409
-0.71919
0.519156
1.97872
0.228194
-0.0562979
0.483888
0.162682
0.982706
0.512179
-0.361992
0.298438
-0.704084
1.69594
-0.598221
0.488995
1.133
-0.395356
0.375631
0.120902
-0.949561
-0.88677
2.7712
-0.780457
3.39644
0.691582
-0.392639
0.439698
6.71475
-0.528939
-1.36937
-0.37839
0.272024
1.23417
-0.803235
-1.12938
1.70592
0.1506
0.056
0.1069
0.1428
0.1072
0.1444
0.1
0.1696
-0.153935
-0.00562116
0.0852636
-0.377478
-0.243877
0.218419
0.484345
-0.1845
-0.19853
0.408577
-0.301329
0.0748526
13.1795
-15.501
0.12144
0.289376
0.0640183
0.452253
-0.349764
-0.720791
-0.549362
0.465565
0.0837955
0.673905
-0.0347398
0.645696
-0.0935544
-0.062138
0.527309
0.558603
1.3226
-0.73219
-0.458956
-0.845741
-0.62258
0.194704
-0.137694
-0.402462
-0.520996
0.344164
-0.601944
2.01321
0.0994512
-3.29631
0.84896
-0.357524
-0.414177
-2.06335
1.21268
1.51376
-1.5254
2.22084
0.153626
0.302752
1.14281
-0.489628
0.398526
0.0356977
-0.630137
1.27162
-0.78922
-0.181372
-1.01109
-0.1117
-0.294733
-0.0538488
0.450548
-0.239788
-1.81322
-0.498758
-0.55706
-2.33106
0.598823
-0.0609768
1.3042
-0.439045
0.590954
-1.11096
-0.378751
-0.13736
1.11688
-0.4118
-0.392601
1.13972
1.69689
-0.27582
0.525385
1.04712
0.49847
1.44052
-0.879562
0.825645
0.373432
-0.0712007
-0.787841
-1.07347
0.116042
-0.533901
0.507966
-0.0491007
-1.04297
-1.79701
0.321478
1.78205
0.222738
-2.00582
-0.750978
-2.30555
0.216121
-1.52216
1.34607
-0.177457
1.27223
0.745593
0.932514
-0.630922
1.59535
0.413149
-0.226108
-1.18235
0.252643
1.51138
0.920795
0.217237
0.93934
1.33386
-0.143971
-1.00394
1.60082
0.986971
-1.45178
0.585407
-0.0456786
-0.349948
0.208369
0.372627
-1.16064
-0.396412
1.00808
0.303808
-0.887667
-1.33211
-0.655375
-0.0827334
1.23098
-0.193335
-0.726951
-0.631975
0.416349
0.260956
0.576532
0.541185
0.48979
0.894185
0.820586
2.00973
-1.32801
-0.159712
-0.530988
-0.499362
-0.0866997
-1.70832
-3.13673
-0.225627
-1.48988
0.881685
1.21978
0.520572
0.534154
-0.134961
-0.707743
1.54817
-0.303347
-0.00613914
1.29341
-1.82808
-1.02226
0.103099
-0.357203
-1.42678
-0.327334
0.349743
0.348054
0.752287
0.809099
0.042101
0.0319472
1.36146
-0.811727
-1.57564
-1.19179
0.710828
-1.85441
0.124354
-0.978269
-0.766482
0.623532
-2.59079
0.529542
1.50902
-0.468589
0.667719
0.318696
-2.03742
-1.07492
1.93816
0.608751
-2.06443
0.140731
-0.464396
-1.78455
0.176476
-1.03882
0.113027
-0.126624
0.473937
-0.0771383
-1.23042
-0.475571
0.823608
-0.371874
-2.66717
-0.119373
-1.33606
0.839289
-0.878329
0.427353
1.01173
-2.48972
0.146403
-0.163237
0.129283
-0.699288
2.01671
0.839777
1.06259
1.10328
0.981126
0.323754
1.17537
-0.0787536
0.996847
0.889339
1.09906
0.361066
-1.7174
-0.0918893
0.232806
1.44511
0.151979
0.0514541
-0.949871
0.0182
0.0728
0.076
0.0048
0.0992
0.0771
0.0627
0.0746
0.0763071
-16.631
0.0807017
0.0210148
0.380745
0.196451
0.436065
0.147867
0.330343
0.355918
0.184336
0.283878
-0.0995796
0.257752
0.506107
0.0535484
10.2734
0.0236582
0.284561
0.154659
0.388087
0.340089
0.668595
0.686602
1.08315
0.660503
0.703478
0.391175
-0.108948
-0.338996
-0.75583
0.569032
0.0958001
0.0266032
2.09352
0.000332026
0.942842
0.435443
0.12757
0.632883
0.741289
0.676406
0.525161
0.214854
0.896062
-0.438361
-0.544607
0.330364
0.876621
-1.60378
-0.399036
-0.88859
0.127508
3.15752
-0.272476
-0.519231
0.788969
0.0311
0.340257
1.85264
-1.07289
-0.490195
0.750897
0.983161
-0.387986
-0.542273
2.14993
-1.095
1.57677
-0.607706
-0.474921
2.01685
0.0934161
0.341853
0.727019
-0.506953
-0.150869
-0.994839
0.89116
-1.53728
-0.13885
0.426883
-1.18926
1.48608
-0.589738
-0.934589
1.91735
-0.0579215
-0.390146
-0.131254
0.582122
0.647191
-0.416856
-0.446732
-0.424962
0.579183
0.687767
1.26907
1.24066
0.587356
-0.654514
1.02652
2.49171
0.917631
0.0865857
0.508213
-0.713316
-0.736652
0.348884
0.809494
1.05619
-1.22085
0.682465
0.443094
-0.954831
-1.47522
0.305538
1.41352
-0.231089
0.989254
-0.967009
-2.28814
0.129092
0.666338
-0.953025
-1.03003
0.345553
-0.725683
1.40136
0.331964
-1.49453
-2.20578
0.065905
-0.110755
0.388751
-0.171493
0.156138
-0.571603
-0.367562
-1.07123
1.15973
-0.192191
0.440687
0.611693
1.05043
-0.505612
-0.809145
0.337583
0.307054
0.734802
-0.187463
0.203162
-0.486069
-0.355213
-0.61726
-0.894377
0.822667
0.118673
-0.443656
-0.784454
1.99588
-0.104213
0.942569
0.374485
-0.709
-1.65198
-0.561137
0.809516
-1.04572
-0.800445
-0.322157
-0.51516
0.0249526
0.364799
0.314639
-0.104741
-0.453864
0.641147
-0.586149
1.07521
0.230716
0.150152
1.4709
0.681937
-0.470758
-0.652722
0.750995
0.488715
1.50776
0.43918
-0.197379
-0.131566
-0.225178
-1.02801
-0.516301
-1.17571
0.535436
0.189497
0.662423
1.19717
-1.37253
3.58746
-0.169122
-1.55813
1.79775
2.17313
1.24963
-0.835944
1.68559
0.68093
-0.78945
0.0110604
0.101187
0.20182
1.11316
-0.633216
-0.638658
-2.13985
0.31036
-1.64159
0.840102
1.43659
1.01848
-0.473525
-1.04126
-0.322362
-0.993899
-0.980398
-0.121387
1.06763
-0.473495
1.14568
0.729822
0.324325
-0.791699
2.15359
-0.317297
1.31634
1.80741
-0.863315
-0.028215
1.12544
-0.140982
-1.13658
-0.114526
-1.17544
0.396136
-0.0765451
0.578074
1.43907
-0.861267
0.939388
0.253
0.0282
0.0896
0.0252
0.2236
0.056
0.1128
0.01
0.163369
-0.228145
0.0871352
0.0393347
-0.170492
0.0674174
0.0107574
-0.105655
-0.1712
0.0660617
-0.128651
-0.00368392
-26.4973
-0.0953908
0.0247065
-0.111253
0.0587748
0.193443
0.1504
0.066087
-8.39903
0.0863655
0.0863716
0.0760207
0.00433761
0.0473169
0.0700876
-0.166498
-0.0676817
-0.0112093
0.0286996
-0.0606889
0.0213307
0.0334458
0.08074
0.0444479
0.0293497
-0.0659766
-0.0131428
9.83972
0.0419419
-0.121784
-0.03541
-0.0237753
-0.00158542
0.0501439
-0.244597
-0.0944226
0.0576131
-25.7781
0.117157
-0.0636172
0.0787772
0.00539502
-11.9686
-0.0353446
-0.115861
0.0329109
-0.084218
0.00555798
-0.0506942
-0.0271881
0.0299586
-0.0486302
-0.000266738
0.0652027
0.0119744
0.112471
-0.0319429
0.0520152
0.0545743
0.0139109
0.0470412
0.0312838
-0.0443396
5.34489
0.0261141
-0.0348245
0.0472971
0.0356388
-6.80837
-2.13452
-0.321412
0.523523
-0.11082
-0.10144
-0.199927
-0.594408
0.359295
0.0796389
-0.223706
0.0137063
0.503387
-0.085248
-1.00327
-0.343357
11.2919
0.576659
0.85703
-0.0680921
-0.317297
0.0306266
0.0986058
0.0935121
0.0541183
0.0425908
-0.0149859
-0.0813265
-0.0356203
-0.0353292
6.77198
0.0359229
-0.0229565
0.0761163
0.136066
0.0804573
0.0346073
-0.0544371
0.0103332
0.0727822
-0.41558
-0.0190603
0.164597
-0.0871178
0.139365
0.0711423
0.0902398
-0.0940709
-0.171929
0.0961196
0.154447
0.0127405
-0.122152
0.0233942
-0.221749
-0.0072404
-0.0235177
0.125005
7.703
0.0764452
0.0259406
-0.0517041
-0.0208346
-0.0681631
0.0698175
5.17137
0.000840721
-0.0173222
0.110743
-0.0368335
-0.0395087
0.0333337
0.0186074
0.0254268
0.0244742
-0.043302
-0.0582776
-0.0366503
-0.00990552
0.0240006
-0.0367287
-0.0115113
-0.0358469
0.0533399
0.0621938
-0.0186541
0.0702197
-0.0722282
-0.142832
0.00457732
0.0842843
-0.125633
0.0411444
-10.5766
-0.0664017
0.0307248
-0.0362317
-0.0240979
0.050774
0.0252984
-13.6039
0.0108804
-25.0349
-0.00729126
0.071546
0.0799896
-0.107329
0.0584137
-0.0330638
0.100634
0.0285179
0.0601733
0.0928952
0.0706044
0.107812
0.0126576
0.0258789
-0.063684
-0.0396331
-0.0560735
0.115436
0.0313376
-0.106961
0.0105936
-0.0412936
0.0406683
0.0503651
-11.7604
0.0511033
-0.0409128
0.105041
0.023804
-0.00464253
0.0591054
0.0908505
0.0664062
0.0297326
-24.4807
0.0257509
0.0343058
8.07583
-0.70467
-2.57441
5.09875
0.541784
-0.0473573
8.74386
-5.4852
-3.74292
8.37871
-1.85751
-3.24161
3.90411
0.0128039
-2.13302
-1.18524
-1.7102
8.46008
-2.29403
0.313075
-1.1251
-9.28745
0.125286
0.0697061
-0.0705671
0.011311
-0.0272797
-0.100908
0.113342
0.0840771
0.0629058
-0.0318328
-0.128652
0.0139691
-0.00523256
0.0758246
-27.051
-0.0755583
-0.0175378
-0.0839187
0.0182949
0.00817253
0.0962421
0.0304437
-0.0234663
-0.0706645
-17.241
0.0279823
-19.3429
0.0756246
0.0715106
0.0428813
0.0435984
0.0208521
-0.0447703
0.0566633
-0.0319112
-0.0560386
-0.0716205
0.0226051
0.174095
0.15992
0.110489
-0.131534
-0.0804545
0.0218277
0.0285122
0.0895688
-0.0205641
0.00571676
-0.0264303
-0.0377384
0.00485954
-0.0167801
0.0662473
-0.012545
0.050741
0.0537332
-0.0526263
-26.9859
-0.0119813
0.0288837
-0.0263806
-27.2944
-0.23175
0.128143
-0.110979
-0.43265
0.105057
0.0799985
-0.00957949
0.0977792
-0.0713284
-0.0220954
-0.0142893
-0.022343
0.141252
0.121999
0.124556
-0.0137156
0.108418
-0.0017455
-0.149745
0.031961
0.0128321
-0.118126
0.0799777
-0.182252
0.0835134
-0.0224068
-0.0201597
6.2868
-0.0161063
-0.0103466
-0.0739676
-0.0405029
-0.0756567
-0.0020823
-0.0375656
-0.119942
-0.350824
19.9099
-0.0421979
-0.118753
-0.101105
0.0514507
0.0755696
-14.3862
0.0647251
-0.0222189
-0.0296429
-0.216834
-0.0729742
-0.0095723
0.103099
-0.145753
-0.106597
0.135147
-19.2535
-0.0831476
-9.60181
-4.63825
4.0676
0.244699
9.65529
-1.84169
-10.4536
-4.73237
10.6385
7.12917
-4.22141
-0.0817325
2.03939
-1.82919
-12.8483
-3.7625
-1.42361
1.51649
1.13798
-3.78752
-0.271174
0.046265
-0.0459204
-0.0400654
-23.2123
-0.00343003
-0.0137603
0.0226306
-0.0473715
0.016524
0.090536
0.0110871
0.066099
-0.0664303
-10.3159
0.0653606
-0.0119887
-0.0387109
-0.0399332
-0.0139091
4.56188
0.0345454
0.0200514
-0.0295311
-0.00719532
-0.046891
-0.0425918
-0.00304711
0.015
-0.110574
-0.0876085
-0.0084413
-0.0359276
0.00242694
-0.0780236
-9.80555e-005
0.00109654
-0.0808233
-0.0245603
0.0395842
-0.100705
0.0290464
-0.116691
-0.119785
0.0445227
-0.136594
-0.07758
-0.0645871
0.00222178
-0.050128
-0.140428
0.0711113
-0.0977955
-0.0608021
4.27302
-0.0459386
-0.056534
0.112407
0.104816
-0.0836684
-0.105675
-0.0557245
-0.0488481
-0.0839327
-0.10322
-0.0755444
-0.081434
-0.0117825
-0.0157341
-0.106275
-0.116261
-0.00244427
-0.129929
-0.0607642
-0.00121292
0.0466272
-0.00718056
-0.040909
-0.0107847
5.56684
-0.0271781
0.00942861
-0.0632856
-0.0466144
-0.0415455
-0.106285
-0.0509192
0.0269152
0.0175051
5.07119
0.0292562
-0.0662567
-0.0724508
-0.0607607
0.00455397
-0.0460053
-0.0103916
-0.00988251
0.0155701
-0.0825229
-0.0787312
-0.0306718
0.0044645
-0.0314648
-0.00724236
-0.0891402
-0.120808
-0.0126832
0.0686037
-0.0825402
0.00958295
-0.0164248
-0.0625777
-0.102852
-0.0965986
-0.0434443
6.34077
-0.0297386
-0.0251045
-0.0371589
-0.000188328
-0.0182478
-0.057698
-0.0875229
-0.0106583
0.062609
-0.0633018
-0.107441
0.0653396
-0.0918415
-0.0661885
-0.0050512
-0.072336
7.43034
-0.0346699
-0.053577
-0.0685803
-0.047029
-0.027479
-0.0677957
0.106677
-0.0366109
-0.120497
-0.0425309
-0.00819935
0.0525924
0.00541947
-0.0321732
-0.0460193
-0.0966387
0.00150657
0.0226138
0.032675
-0.0700344
-0.0388964
4.36324
0.00599227
-0.0293778
0.00938597
0.0139288
-0.00221541
0.0213214
-0.0895394
6.82574
-0.0781356
-0.0794213
-0.0308702
-0.0724444
0.00472378
0.0145109
-0.0208751
-0.00628162
-0.139705
-0.0605323
-0.101939
-0.0478294
-0.0260528
-0.0298407
-0.0310341
0.00699921
0.0224582
-0.058223
6.33663
-0.0966571
-0.0819997
-0.137812
-0.0299894
-0.0730053
0.0319398
-0.0614778
-0.0598786
-0.018457
-0.117412
-0.0906422
-0.0179233
-0.0254581
-0.0934356
-0.0287621
-0.0346014
-0.0136715
-0.0283517
-0.012221
-0.00697706
-0.0707476
-0.03255
0.0537569
-0.0579794
0.036014
-0.0361689
0.0275114
5.97886
-0.0277105
-9.47415e-005
0.004479
0.0366555
-0.0675477
-0.00757704
0.00276836
0.0142929
-0.0957676
-0.00928725
0.025044
0.0535922
-0.0347392
0.00270222
-0.0814073
0.00314176
-0.0378262
-8.35609e-005
-0.0930634
-0.0937485
-0.00498412
5.65097
-0.14061
-0.0584972
0.0564926
-0.0192191
-0.0206233
-0.00786469
-0.0285244
-0.0819563
0.0163798
0.010322
-0.037513
0.00746847
-0.0175744
-0.0196187
5.69931
0.0464887
-0.0713624
-0.0630161
-0.0194314
-0.0151913
0.00736669
0.0440888
0.0128218
-0.0127215
-0.0318721
-0.00228112
-0.0161127
0.00695859
-0.0619894
-0.00953678
0.0131162
-0.0157459
-0.0708521
3.60092
-0.0681444
0.105618
0.0491735
0.0432061
-0.00122552
-0.0445141
-0.0578623
-0.0822876
0.0418238
-0.045299
0.997541
0.147742
-0.0325738
-0.0271802
-0.0734114
-0.0492544
-0.0665571
-0.0367246
0.00978681
-0.0392294
-0.0297984
0.0431102
-0.103831
-0.0585495
0.0240229
-0.0497907
-0.0419551
-0.0858808
-0.0326363
-0.0911169
20.5611
-0.0160414
0.0108953
-0.129232
-0.125499
-0.109891
0.0330967
-0.0139466
0.212793
-0.0439501
0.0634747
-2.42394
0.0607043
0.000617692
-3.25925e-005
0.00412783
-0.00696437
-0.069985
-0.103728
-0.155915
-0.151292
-0.172575
-0.0754735
0.00668096
-0.0283203
-0.0313459
0.0215884
-0.0430328
0.0750016
0.00556524
-0.0285606
0.0187293
-0.0108525
-0.0749158
0.00953533
0.0258222
0.0292169
-0.0548398
-0.0229681
-0.0593321
-0.00192136
1.00921
-0.0120798
0.0146776
4.79593
-0.136269
-0.0904864
-0.0433366
-0.0743051
-0.0404105
-0.00155931
0.0304493
-0.136512
0.0708155
0.0292795
-0.0661719
-0.124145
0.101014
-0.0563423
-0.160323
-0.0440068
-0.0188571
-0.106152
-0.0193335
-0.0515316
0.0493005
-0.0326531
-0.014712
5.66626
0.0110641
-0.0194376
0.0120598
-0.0526794
-0.0333524
-0.0399226
-0.0240506
-0.0594507
-0.000540247
-0.0212318
-0.0147552
-0.00847139
-0.0405745
-0.00790381
-0.0215046
0.00702442
-0.0365109
-9.77695e-005
-0.0262138
-0.0189734
0.000259647
-0.0365885
0.000968323
-0.0187254
0.00593175
1.03567
-0.0111963
-0.0457995
-0.0406141
-0.0170025
-0.0463332
-0.0058347
-0.00525767
-0.0487153
-0.169835
0.0229132
-0.0215417
-0.149369
-0.135219
0.0495089
-0.0804615
0.115756
0.0153864
-0.209911
-0.159182
0.14357
-0.264879
-0.166061
-0.241773
-0.25089
-0.148901
0.0246415
-0.0937355
-0.170261
-0.0307728
-0.000450606
-0.0279274
-0.0432383
7.80564
-0.0706188
0.0224831
-0.0308938
0.00283481
-0.00730911
-0.0547994
0.0261608
0.125479
-0.0625298
-0.0249632
-0.0469652
-0.0158257
0.0113736
-0.0191972
0.00295555
-0.112768
0.0746178
-0.0435485
-0.123934
0.191412
0.0710332
0.0168215
-0.0185941
0.0717577
-0.14413
-0.111994
-0.0255833
-0.0491625
-0.153618
-0.161563
-0.0744387
-0.0675767
-0.0380294
-0.0347304
-0.106438
-0.0930559
0.0144725
-0.0850807
-0.112174
-0.0653544
0.0705593
-0.0514604
0.0406429
0.0733741
-0.0457894
-0.0755047
-0.0902214
-0.056098
-0.00601258
-0.0791946
-0.0559857
-0.0850938
-0.0419182
-0.0388498
-0.104226
-0.0332749
-0.0494797
-0.0811297
-0.0555556
0.0619424
0.0392706
0.076183
0.0598836
0.0310606
-0.119785
-0.168823
0.0124456
-0.101619
-0.169011
-0.031387
-0.0971633
0.00936478
-0.0252219
0.0290139
-0.116908
-0.0535751
0.00239241
-0.0101403
-0.0556845
0.0835063
0.0315571
-0.0193322
-0.0582541
0.0195326
-0.0145179
-0.0483624
-0.0782763
0.0562001
-0.0115402
-0.0363289
-0.00582236
-0.0631434
-0.0231462
-0.0403648
-0.0863494
-0.0182194
0.042925
-0.0351922
-0.0370979
0.0372871
-0.00390267
0.0572225
0.00571562
0.027465
-0.018093
-0.038165
-0.00589525
-0.0344883
-0.0438053
-0.0199123
-0.0271708
0.000891032
-0.00331033
-0.00254883
-0.0376298
-0.0129454
0.000267019
-0.0435251
-0.0279988
0.0179913
-0.0606001
0.0309748
-0.00860471
0.031244
-0.0266406
-0.0119506
0.000806752
0.00362199
-0.0368925
-0.0319735
0.0136975
-0.0385156
-0.012384
-0.00400968
-0.0480224
0.0146369
0.0164673
-0.0240992
-0.00860595
-0.0283823
0.00115668
-0.0156102
-0.0217038
-0.00264335
0.0171907
-0.0184379
-0.000783631
-0.021243
-0.0219071
-0.0246455
-0.0290276
0.0167654
-0.00336487
0.000369742
-0.0233282
-0.00499563
0.0138414
-0.0169462
0.0172553
-0.0182927
0.0296024
-0.0114085
-0.0124064
0.00437968
-0.0190821
-0.0175342
0.00142531
-0.0152363
0.00574354
0.0199488
-0.0105941
-0.00288952
-0.0111545
0.00261895
-0.0063615
-0.00156511
0.0011031
-0.00258055
-0.00353107
-0.00231441
0.000768515
-0.000163143
-0.00102372
0.00085879
-0.00250261
-0.0019144
1.18105e-005
0.000957021
-0.00570837
-0.00105083
-0.000507654
-0.00446417
-0.000635992
4.36655e-006
-0.00230505
-0.00969724
-0.00397078
0.00793888
-0.00302348
-0.00490407
0.0104711
-0.00175553
-0.0102426
0.00146434
-0.00378072
-0.00503434
-0.00102093
-0.00693777
-0.00569496
-0.0044903
-0.00610484
-0.00340816
-0.00109209
-0.000648574
-0.00227536
-1.33482e-016
-8.05458e-017
-1.67387e-016
-1.64662e-016
-9.91108e-017
-1.12281e-016
-3.76135e-017
-1.3292e-016
8.70697e-017
-1.62587e-016
-1.62125e-016
-5.25324e-017
-2.08438e-016
-2.31278e-016
-1.31868e-016
-2.18213e-016
-1.54435e-016
-2.31209e-017
-4.21831e-017
-1.33741e-016
-0.00129047
-0.00184648
0.00140295
-0.00103557
-0.0021212
-0.00103314
-0.000879689
-0.00357187
0.000733226
-0.000911866
0.000460708
-7.20819e-005
-0.00209128
-0.00424788
-0.00125193
-0.000532742
-0.00229053
-0.000623759
-0.0004073
-0.00171045
-1.33872e-016
-9.21159e-017
-1.59298e-016
-1.35911e-016
-1.00536e-016
-1.11937e-016
-4.16421e-017
-1.42312e-016
1.24691e-016
-1.81383e-016
-1.54134e-016
-3.40656e-017
-1.60787e-016
-2.20352e-016
-1.35689e-016
-2.2541e-016
-1.48503e-016
-5.31301e-017
-1.44858e-017
-1.25844e-016
1.45812e-016
8.09261e-017
1.35636e-016
1.10308e-016
1.01547e-016
8.60195e-017
4.86742e-017
1.26325e-016
-9.70753e-017
2.03886e-016
1.59578e-016
3.4368e-017
2.32401e-016
2.46085e-016
1.16546e-016
2.28132e-016
1.76332e-016
2.30952e-017
2.69491e-017
1.17399e-016
-1.7065e-016
-7.64042e-017
-1.19127e-016
-1.52999e-016
-8.19724e-017
-1.20427e-016
-4.81707e-017
-1.03135e-016
9.32494e-017
-1.65249e-016
-1.34372e-016
-5.46423e-017
-1.86751e-016
-2.31549e-016
-1.14658e-016
-1.97489e-016
-1.57435e-016
-3.78927e-017
-2.71105e-017
-1.06117e-016
-1.50642e-016
-6.50618e-017
-1.54326e-016
-1.88912e-016
-9.33188e-017
-1.3303e-016
-2.37501e-017
-1.0185e-016
8.44577e-017
-2.26092e-016
-1.47871e-016
-5.18045e-017
-1.76706e-016
-2.20015e-016
-1.37441e-016
-2.2219e-016
-1.31615e-016
-4.35173e-017
-1.04893e-017
-1.1297e-016
-0.000319919
-0.000722883
-0.000509552
-0.000729303
-0.000171772
-0.00130781
-4.63281e-005
-0.000415868
0.000162165
-0.000364475
-0.000536569
-2.86359e-005
-0.000404254
-0.000901921
-0.000354896
-0.000242033
-0.000686373
-0.000199471
-0.000126843
-0.000443599
1.4157e-016
6.96874e-017
1.33815e-016
1.49131e-016
8.10943e-017
1.13469e-016
4.70283e-017
1.12774e-016
-8.72076e-017
1.67578e-016
1.38008e-016
1.9e-017
1.85099e-016
2.63553e-016
1.16887e-016
1.95902e-016
1.48783e-016
5.06981e-017
2.37297e-018
8.28434e-017
-1.55798e-016
-9.89174e-017
-1.4911e-016
-1.33474e-016
-7.8693e-017
-1.02466e-016
-5.55099e-017
-1.08135e-016
9.37976e-017
-1.68798e-016
-1.19533e-016
-2.57585e-017
-1.68409e-016
-2.56834e-016
-1.01525e-016
-1.89932e-016
-1.4641e-016
-3.91018e-017
1.73006e-017
-1.36996e-016
-1.50011e-016
-8.6408e-017
-1.35705e-016
-1.41347e-016
-5.5466e-017
-1.10061e-016
-5.08972e-017
-1.01126e-016
6.9229e-017
-1.82934e-016
-1.78922e-016
-4.38138e-017
-1.91505e-016
-2.36021e-016
-1.41036e-016
-2.17197e-016
-1.54647e-016
-3.77893e-017
-1.10844e-018
-1.18247e-016
1.46648e-016
7.08045e-017
1.71565e-016
1.52657e-016
8.44336e-017
1.18322e-016
3.1678e-017
1.11737e-016
-9.94976e-017
1.96822e-016
1.38366e-016
3.91523e-017
2.02441e-016
2.29127e-016
1.52898e-016
2.3291e-016
1.76306e-016
3.71917e-017
8.61699e-018
1.05142e-016
1.27621e-016
1.04822e-016
1.64618e-016
1.40998e-016
6.20834e-017
1.25624e-016
4.2107e-017
1.17749e-016
-9.07752e-017
1.42541e-016
1.52086e-016
6.3297e-017
2.05489e-016
2.48007e-016
1.30647e-016
1.92517e-016
1.539e-016
6.70784e-017
1.71379e-017
1.23731e-016
1.44698e-016
5.15208e-017
1.60186e-016
1.64435e-016
8.07515e-017
1.03462e-016
4.49958e-017
1.02129e-016
-7.77621e-017
1.83733e-016
1.18029e-016
9.53676e-018
1.77429e-016
2.029e-016
9.94267e-017
1.93446e-016
1.54131e-016
4.79884e-017
3.1875e-017
1.28247e-016
1.71074e-016
7.87866e-017
1.7418e-016
1.35603e-016
7.83523e-017
1.14231e-016
3.25609e-017
1.14072e-016
-7.91625e-017
1.75887e-016
1.25554e-016
5.56559e-017
1.71564e-016
2.09534e-016
1.04019e-016
1.95635e-016
1.63075e-016
5.16662e-017
3.52309e-017
1.02804e-016
-1.19677e-016
-9.64322e-017
-1.47207e-016
-1.55002e-016
-6.66286e-017
-9.66783e-017
-6.98362e-017
-1.22312e-016
7.98052e-017
-2.04386e-016
-1.0762e-016
-5.41664e-017
-1.87151e-016
-2.47543e-016
-1.14479e-016
-2.06981e-016
-1.55756e-016
-2.56635e-017
-1.55918e-017
-9.81861e-017
1.39142e-016
1.17532e-016
1.43099e-016
1.43238e-016
9.295e-017
1.13331e-016
3.35247e-017
1.0533e-016
-8.78215e-017
1.7443e-016
1.53064e-016
2.73728e-017
2.14473e-016
2.3291e-016
1.21001e-016
2.0992e-016
1.70929e-016
4.03954e-017
2.99043e-017
1.21447e-016
-1.56842e-016
-6.27771e-017
-1.66823e-016
-1.20561e-016
-9.04655e-017
-9.48374e-017
-6.35877e-017
-1.08956e-016
8.53458e-017
-1.88957e-016
-1.13777e-016
-3.08405e-017
-1.89606e-016
-2.09712e-016
-1.32305e-016
-1.67027e-016
-1.4473e-016
-3.35532e-017
1.15586e-017
-1.18623e-016
-1.5245e-016
-5.96265e-017
-1.6765e-016
-1.49914e-016
-8.73902e-017
-9.64168e-017
-4.60156e-017
-1.26678e-016
1.2722e-016
-2.00962e-016
-1.22694e-016
-5.28777e-017
-1.96177e-016
-2.07599e-016
-1.6926e-016
-2.03678e-016
-1.52569e-016
-1.73797e-017
-1.52568e-017
-1.10046e-016
1.628e-016
6.49142e-017
1.51896e-016
1.34686e-016
6.82789e-017
8.87856e-017
4.75211e-017
1.29461e-016
-7.54723e-017
1.57879e-016
1.39774e-016
2.9807e-017
1.71699e-016
1.88502e-016
1.14794e-016
1.96963e-016
1.45787e-016
4.88949e-017
4.09089e-017
9.0493e-017
-1.32435e-016
-7.61813e-017
-1.64558e-016
-1.60297e-016
-1.02119e-016
-1.21314e-016
-5.24567e-017
-1.41068e-016
8.43613e-017
-1.85639e-016
-1.56215e-016
-2.86296e-017
-1.5181e-016
-2.26758e-016
-1.02591e-016
-1.8053e-016
-1.56635e-016
-4.31733e-017
-1.32427e-017
-1.14207e-016
-1.21316e-016
-8.21969e-017
-1.44042e-016
-1.55325e-016
-8.29568e-017
-1.19528e-016
-5.65182e-017
-8.33119e-017
8.7767e-017
-1.69075e-016
-1.00149e-016
-5.61992e-017
-1.87756e-016
-2.37275e-016
-1.2168e-016
-2.15015e-016
-1.90524e-016
-4.2391e-017
-2.73234e-018
-1.45588e-016
-1.60327e-016
-7.23808e-017
-1.53852e-016
-1.32753e-016
-1.10573e-016
-9.93023e-017
-2.19758e-017
-1.20734e-016
5.72797e-017
-1.65461e-016
-1.16963e-016
-5.46852e-017
-1.8588e-016
-2.19406e-016
-9.15419e-017
-1.86915e-016
-1.41349e-016
-3.24278e-017
-2.78173e-017
-8.18337e-017
-1.32732e-016
-8.63633e-017
-1.53367e-016
-1.56567e-016
-8.67016e-017
-8.56584e-017
-1.60173e-017
-1.11446e-016
8.17975e-017
-1.56685e-016
-1.37548e-016
-5.13065e-017
-1.88799e-016
-2.34214e-016
-1.08336e-016
-2.11074e-016
-1.52575e-016
-4.61021e-017
-1.45518e-017
-8.83809e-017
1.24512e-016
6.86783e-017
1.40577e-016
1.54243e-016
9.0364e-017
1.05716e-016
6.39598e-017
9.41583e-017
-9.09331e-017
1.83412e-016
1.25556e-016
1.5333e-017
1.95159e-016
2.28141e-016
9.77783e-017
2.06849e-016
1.41944e-016
1.63831e-017
2.43845e-017
9.28471e-017
1.18907e-016
1.15356e-016
1.63283e-016
1.45333e-016
9.02036e-017
1.24216e-016
5.67032e-017
9.88307e-017
-1.33505e-016
2.10878e-016
1.43475e-016
6.79808e-017
2.11471e-016
2.11138e-016
1.05357e-016
2.23431e-016
1.84843e-016
3.4658e-017
3.10902e-017
1.33992e-016
-1.37421e-016
-7.10137e-017
-1.50249e-016
-1.29819e-016
-1.02358e-016
-1.12014e-016
-3.90022e-017
-9.84254e-017
8.4254e-017
-1.80877e-016
-1.51096e-016
-5.33036e-017
-2.03558e-016
-2.10984e-016
-1.35152e-016
-1.94868e-016
-1.66954e-016
-4.31218e-017
-2.7096e-017
-1.38815e-016
1.18164e-016
7.14717e-017
1.81832e-016
1.39112e-016
5.39224e-017
1.13855e-016
4.50989e-017
1.04137e-016
-1.13175e-016
2.05574e-016
1.40477e-016
3.15143e-017
1.95445e-016
2.27942e-016
1.23881e-016
2.16607e-016
1.76028e-016
3.46325e-017
3.92871e-017
1.25449e-016
1.2097e-016
7.8818e-017
1.66398e-016
1.6021e-016
9.42096e-017
9.56033e-017
4.55053e-017
9.10448e-017
-7.65471e-017
1.71037e-016
1.49646e-016
2.33518e-017
1.69525e-016
2.43922e-016
1.08231e-016
2.01939e-016
1.58043e-016
5.44776e-017
3.03498e-017
1.135e-016
1.18363e-016
6.80859e-017
1.86708e-016
1.47006e-016
9.36641e-017
1.10957e-016
3.84491e-017
1.07481e-016
-6.20926e-017
1.90887e-016
1.67121e-016
2.02631e-017
1.64813e-016
2.26567e-016
9.7402e-017
1.66178e-016
1.62682e-016
1.61387e-017
1.28592e-017
1.09261e-016
-1.36242e-016
-6.80415e-017
-1.50886e-016
-1.4889e-016
-1.10411e-016
-1.02724e-016
-5.27003e-017
-9.44078e-017
7.34673e-017
-1.82523e-016
-1.44889e-016
-5.56048e-017
-2.03737e-016
-2.36501e-016
-1.28561e-016
-2.0256e-016
-1.53789e-016
-5.56136e-017
-1.44711e-017
-1.07486e-016
1.08784e-016
8.8442e-017
1.54392e-016
1.37323e-016
4.02061e-017
1.20471e-016
4.02472e-017
9.79507e-017
-4.1641e-017
1.29252e-016
1.42505e-016
1.423e-017
1.43205e-016
2.1419e-016
1.22137e-016
2.04594e-016
1.64163e-016
3.8784e-017
1.30499e-017
1.32551e-016
-1.50314e-016
-7.0607e-017
-1.29273e-016
-1.40865e-016
-7.68718e-017
-1.28488e-016
-6.50583e-017
-9.46431e-017
9.08853e-017
-1.80083e-016
-1.29646e-016
-2.99002e-017
-1.93526e-016
-2.10521e-016
-1.33111e-016
-1.76564e-016
-1.95057e-016
-2.7825e-017
-3.54619e-017
-1.34434e-016
1.35462e-016
9.11827e-017
1.58493e-016
1.8068e-016
6.86275e-017
1.0592e-016
6.35487e-017
1.27443e-016
-6.93349e-017
1.59283e-016
1.31949e-016
2.56785e-018
1.5659e-016
2.17569e-016
1.2152e-016
1.7221e-016
1.27087e-016
6.60548e-017
1.14372e-017
1.11395e-016
1.52556e-016
7.30147e-017
1.46659e-016
1.31621e-016
9.18875e-017
1.09018e-016
3.22269e-017
1.11208e-016
-1.01915e-016
2.11884e-016
1.52971e-016
3.75699e-017
2.26009e-016
2.44459e-016
1.12182e-016
1.95759e-016
2.01625e-016
4.65346e-017
1.50723e-017
1.09222e-016
-1.7352e-016
-8.84337e-017
-1.51114e-016
-1.83282e-016
-4.86343e-017
-1.36761e-016
-6.85888e-017
-1.4284e-016
8.91345e-017
-1.92441e-016
-1.2724e-016
-9.56766e-018
-1.78402e-016
-2.38233e-016
-1.42791e-016
-2.13373e-016
-1.74994e-016
-2.93993e-017
-1.98657e-017
-1.29588e-016
1.61952e-016
8.43137e-017
1.40216e-016
1.29249e-016
5.53492e-017
1.34198e-016
5.92455e-017
1.16963e-016
-1.07333e-016
1.50265e-016
1.3835e-016
3.04056e-017
1.83961e-016
2.19661e-016
1.23337e-016
1.50096e-016
1.40212e-016
2.2105e-017
5.21632e-017
1.13041e-016
-1.39745e-016
-7.29192e-017
-1.57788e-016
-1.39564e-016
-8.42791e-017
-1.00005e-016
-2.88423e-017
-1.19043e-016
8.7883e-017
-1.39248e-016
-9.87247e-017
-1.39901e-017
-1.62444e-016
-2.2697e-016
-1.12176e-016
-1.57443e-016
-1.23091e-016
-1.2477e-017
-4.70561e-017
-1.10325e-016
1.5262e-016
9.21285e-017
1.27136e-016
1.55061e-016
9.29837e-017
1.26971e-016
5.68023e-017
9.43505e-017
-8.28985e-017
1.71399e-016
1.40475e-016
4.49209e-017
2.02943e-016
2.43988e-016
1.12507e-016
2.07354e-016
1.59525e-016
5.44231e-017
2.48582e-017
1.22389e-016
1.11099e-016
8.02632e-017
1.61227e-016
1.29292e-016
6.22739e-017
8.04251e-017
7.53886e-017
9.68766e-017
-8.23713e-017
1.59834e-016
1.60025e-016
2.69183e-017
1.65302e-016
1.92635e-016
9.93443e-017
1.89526e-016
1.28089e-016
4.70607e-017
2.52515e-017
9.57769e-017
-1.41963e-016
-9.30863e-017
-1.73848e-016
-1.67747e-016
-1.006e-016
-1.16224e-016
-6.27877e-017
-1.30582e-016
5.81807e-017
-1.68462e-016
-1.29904e-016
-6.57032e-018
-1.76134e-016
-1.84179e-016
-1.07968e-016
-2.0304e-016
-1.31486e-016
-5.65839e-017
-1.22443e-017
-1.318e-016
9.80292e-017
7.25958e-017
1.57411e-016
1.38083e-016
9.27749e-017
9.10952e-017
1.40139e-017
1.44041e-016
-8.92898e-017
1.73337e-016
1.17934e-016
2.20847e-017
1.6721e-016
2.08564e-016
9.16888e-017
1.79457e-016
1.27638e-016
2.88327e-017
5.35522e-017
8.85448e-017
-1.36299e-016
-8.53435e-017
-1.36693e-016
-1.03213e-016
-5.83783e-017
-1.06837e-016
-3.99361e-017
-8.3788e-017
6.4488e-017
-1.70968e-016
-1.05534e-016
1.34382e-017
-1.6088e-016
-2.13643e-016
-1.12031e-016
-1.63439e-016
-1.37324e-016
-1.81469e-017
-3.57046e-018
-1.19917e-016
-1.41269e-016
-8.10781e-017
-1.47014e-016
-1.52276e-016
-9.44519e-017
-9.565e-017
-6.76725e-017
-7.15578e-017
9.19415e-017
-2.08174e-016
-1.64566e-016
-1.95445e-017
-1.96713e-016
-2.16442e-016
-9.48022e-017
-1.953e-016
-1.40514e-016
-2.80516e-017
-5.30931e-017
-1.28309e-016
-1.38759e-016
-7.89155e-017
-1.4641e-016
-1.69311e-016
-8.47078e-017
-1.24036e-016
-5.71363e-017
-8.47129e-017
1.03425e-016
-2.06842e-016
-1.22576e-016
-4.90976e-017
-1.52737e-016
-2.15147e-016
-1.0721e-016
-1.62392e-016
-1.54043e-016
-6.74098e-017
-2.08506e-017
-1.13253e-016
-1.48072e-016
-8.46338e-017
-1.78462e-016
-1.5606e-016
-6.71549e-017
-9.65069e-017
-4.61799e-017
-8.84568e-017
5.5383e-017
-1.41119e-016
-1.30056e-016
-2.63206e-017
-1.81702e-016
-2.14917e-016
-1.15833e-016
-1.60655e-016
-1.60028e-016
-4.92783e-017
-2.83819e-017
-1.08132e-016
-1.15653e-016
-5.4212e-017
-1.68436e-016
-1.34051e-016
-7.95602e-017
-1.1924e-016
-3.90528e-017
-1.23678e-016
1.0824e-016
-2.1679e-016
-1.44372e-016
-2.73345e-017
-1.78448e-016
-2.32999e-016
-1.12469e-016
-2.32854e-016
-1.41191e-016
-4.21017e-017
-1.89062e-017
-9.58718e-017
1.29557e-016
6.31594e-017
1.42107e-016
1.27126e-016
6.82511e-017
8.59466e-017
4.49234e-017
7.9204e-017
-5.5021e-017
1.92786e-016
1.43316e-016
1.95527e-017
1.86258e-016
2.11404e-016
1.25191e-016
1.6962e-016
1.43293e-016
5.08122e-017
2.90723e-017
1.05596e-016
1.27704e-016
5.98808e-017
1.92928e-016
1.51355e-016
1.0858e-016
1.08575e-016
4.9728e-017
1.16493e-016
-1.13255e-016
1.96944e-016
1.50283e-016
4.76058e-017
1.64977e-016
2.37322e-016
1.20829e-016
1.89503e-016
1.65833e-016
3.19076e-017
9.39077e-018
1.21706e-016
-1.28321e-016
-8.74013e-017
-1.42012e-016
-1.36509e-016
-7.21484e-017
-1.24897e-016
-4.3602e-017
-9.106e-017
6.32547e-017
-1.6079e-016
-1.32572e-016
-3.52486e-017
-1.75801e-016
-2.19129e-016
-9.90281e-017
-1.78544e-016
-1.70734e-016
-2.99545e-017
-3.56046e-017
-1.13986e-016
1.54704e-016
7.20209e-017
1.2748e-016
1.18205e-016
8.00477e-017
8.44447e-017
5.17181e-017
1.2696e-016
-6.98576e-017
1.87063e-016
1.17493e-016
5.47798e-018
1.71266e-016
2.0453e-016
1.19978e-016
1.75971e-016
1.50201e-016
7.42121e-017
2.99429e-017
1.13763e-016
-1.35666e-016
-1.09345e-016
-1.7071e-016
-1.48175e-016
-6.36873e-017
-1.32232e-016
-3.07355e-017
-1.01429e-016
9.77434e-017
-1.64457e-016
-1.71768e-016
-5.75063e-017
-1.97438e-016
-2.12715e-016
-1.48113e-016
-2.34532e-016
-1.66851e-016
-2.54916e-017
-1.48864e-017
-1.17859e-016
-9.71395e-017
-9.81211e-017
-1.38694e-016
-1.2159e-016
-6.88823e-017
-7.96058e-017
-4.32313e-017
-9.97336e-017
8.67549e-017
-1.65806e-016
-1.22611e-016
-2.40464e-017
-1.83742e-016
-1.94306e-016
-1.38968e-016
-2.10016e-016
-9.61807e-017
-4.88615e-017
-2.31097e-017
-1.03525e-016
1.33846e-016
5.94764e-017
1.39723e-016
1.58943e-016
7.48808e-017
9.84119e-017
3.37873e-017
1.08352e-016
-8.36832e-017
1.91287e-016
1.29616e-016
3.51397e-017
1.79842e-016
2.17521e-016
1.19842e-016
2.12683e-016
1.20422e-016
6.93864e-017
2.65082e-017
9.36098e-017
-1.24063e-016
-1.04743e-016
-1.79174e-016
-1.23558e-016
-8.63871e-017
-1.4363e-016
-6.11735e-017
-9.20906e-017
9.53889e-017
-2.24169e-016
-1.58418e-016
-4.62467e-017
-2.00856e-016
-2.55177e-016
-1.21601e-016
-2.01262e-016
-1.60609e-016
-5.40134e-017
-3.78267e-017
-1.44007e-016
-1.56367e-016
-7.85069e-017
-1.35147e-016
-1.34916e-016
-5.02085e-017
-1.22215e-016
-5.2705e-017
-1.24506e-016
8.52169e-017
-1.61334e-016
-1.22898e-016
-4.47074e-017
-1.85034e-016
-2.16835e-016
-1.07625e-016
-1.49434e-016
-1.28996e-016
-6.92993e-017
-4.17345e-017
-1.00651e-016
1.53734e-016
6.94835e-017
1.63222e-016
1.43796e-016
9.75748e-017
9.30523e-017
6.37839e-017
1.23576e-016
-8.44595e-017
2.01846e-016
1.37313e-016
1.43553e-017
1.82971e-016
2.27923e-016
9.90195e-017
1.99797e-016
1.33349e-016
2.5057e-017
3.28355e-017
1.12618e-016
-1.51532e-016
-1.16004e-016
-1.715e-016
-1.59829e-016
-8.57082e-017
-1.13487e-016
-3.97536e-017
-8.59874e-017
1.15347e-016
-2.0474e-016
-1.74315e-016
-5.53795e-017
-2.09645e-016
-2.28433e-016
-1.2982e-016
-2.11495e-016
-1.7001e-016
-2.59464e-017
-2.31821e-017
-1.09004e-016
1.39545e-016
9.71043e-017
1.6775e-016
1.34351e-016
6.0023e-017
8.16717e-017
5.59296e-017
1.26863e-016
-7.36563e-017
1.4145e-016
1.30001e-016
1.89878e-017
1.49978e-016
2.17557e-016
1.26575e-016
1.47411e-016
1.29377e-016
5.36426e-017
4.36721e-017
8.24024e-017
1.06253e-016
8.19939e-017
1.44596e-016
1.114e-016
4.484e-017
1.23164e-016
2.9358e-017
9.75335e-017
-5.92187e-017
1.88256e-016
1.00457e-016
2.54052e-017
1.67698e-016
2.23553e-016
9.61228e-017
1.76842e-016
1.35993e-016
5.73587e-017
2.30782e-017
1.13891e-016
1.28753e-016
8.6403e-017
1.31382e-016
1.60613e-016
9.44596e-017
1.09245e-016
5.59047e-017
9.96679e-017
-9.7276e-017
1.46839e-016
1.49233e-016
4.29906e-017
1.93668e-016
2.06974e-016
1.18009e-016
2.31234e-016
1.43975e-016
3.70321e-017
3.23725e-017
1.17291e-016
-1.44964e-016
-6.11465e-017
-1.35074e-016
-1.50049e-016
-8.25311e-017
-1.25112e-016
-4.05592e-017
-1.29369e-016
1.16973e-016
-1.98643e-016
-1.24564e-016
-1.48648e-017
-1.7915e-016
-2.23061e-016
-1.24578e-016
-1.78359e-016
-1.67618e-016
-4.50506e-017
-5.23681e-018
-1.16587e-016
1.39455e-016
6.06558e-017
1.56913e-016
1.52443e-016
9.74136e-017
1.03557e-016
3.94778e-017
9.74725e-017
-1.1279e-016
1.84092e-016
1.17927e-016
-3.6508e-018
2.05935e-016
2.31651e-016
1.20494e-016
1.66823e-016
1.68075e-016
4.8682e-017
4.49129e-017
1.21613e-016
-1.33502e-016
-8.91634e-017
-1.3759e-016
-1.57343e-016
-6.57595e-017
-1.13814e-016
-5.34393e-017
-7.49331e-017
9.43976e-017
-1.61175e-016
-1.35757e-016
-1.86717e-017
-2.17903e-016
-2.25672e-016
-1.24863e-016
-2.02632e-016
-1.37134e-016
-4.86699e-017
-4.08779e-017
-8.75704e-017
1.51158e-016
6.83791e-017
1.43316e-016
1.40685e-016
5.48268e-017
1.25697e-016
5.61203e-017
1.27774e-016
-8.47411e-017
1.7219e-016
9.99693e-017
2.93903e-017
1.55874e-016
2.18912e-016
1.06998e-016
1.55947e-016
1.18391e-016
5.57501e-017
4.77593e-017
1.33023e-016
-1.25707e-016
-1.16572e-016
-1.487e-016
-1.209e-016
-7.12512e-017
-1.34756e-016
-4.83183e-017
-1.18647e-016
1.2733e-016
-1.72524e-016
-1.29922e-016
-5.44884e-017
-1.62647e-016
-2.24121e-016
-1.08024e-016
-1.89597e-016
-1.38155e-016
-5.02249e-017
-1.86743e-017
-1.11761e-016
1.38713e-016
8.87037e-017
1.4114e-016
1.55897e-016
6.10262e-017
1.13074e-016
4.03545e-017
1.08571e-016
-8.22929e-017
1.93688e-016
9.10432e-017
2.59143e-017
2.03258e-016
2.46293e-016
1.1927e-016
1.91747e-016
1.39404e-016
3.56999e-017
3.43498e-018
1.17926e-016
1.2228e-016
1.042e-016
1.32848e-016
1.36406e-016
8.27658e-017
1.2306e-016
3.85852e-017
1.2601e-016
-8.66132e-017
2.01092e-016
1.11247e-016
2.54821e-017
1.81405e-016
2.33213e-016
1.3818e-016
1.90421e-016
1.37385e-016
3.14118e-017
1.7964e-017
1.10035e-016
-1.09282e-016
-8.4535e-017
-1.7685e-016
-1.29065e-016
-6.57982e-017
-1.05668e-016
-4.63232e-017
-1.20591e-016
1.09067e-016
-1.8982e-016
-1.53837e-016
-4.08036e-017
-1.70677e-016
-2.41798e-016
-1.18899e-016
-1.67848e-016
-1.26381e-016
-5.24019e-017
-8.28523e-018
-1.47508e-016
-1.49168e-016
-1.01128e-016
-1.43536e-016
-1.50503e-016
-5.91534e-017
-9.82421e-017
-4.82226e-017
-1.17008e-016
6.81425e-017
-1.72383e-016
-1.63832e-016
-1.24349e-017
-1.48324e-016
-2.27952e-016
-9.80039e-017
-1.84709e-016
-1.51409e-016
-5.63722e-017
-2.54881e-017
-1.41417e-016
-1.29188e-016
-9.56456e-017
-1.34853e-016
-1.25764e-016
-6.68868e-017
-1.02249e-016
-5.90711e-017
-8.91729e-017
8.5156e-017
-1.67029e-016
-1.14822e-016
-4.82184e-017
-1.74012e-016
-2.09424e-016
-1.19761e-016
-1.60402e-016
-1.64523e-016
-4.4223e-017
-5.18941e-017
-1.2144e-016
-1.46312e-016
-8.42146e-017
-1.54794e-016
-1.55004e-016
-4.76768e-017
-8.38991e-017
-7.9556e-017
-1.19493e-016
6.63152e-017
-1.58573e-016
-1.04742e-016
-2.92031e-017
-1.57582e-016
-2.18424e-016
-9.90855e-017
-1.92216e-016
-1.36046e-016
-6.31295e-017
-6.81376e-018
-1.37396e-016
1.26886e-016
6.58584e-017
1.68308e-016
1.52313e-016
4.42547e-017
7.82152e-017
4.27767e-017
9.64853e-017
-5.35645e-017
1.66725e-016
1.27999e-016
3.93507e-017
1.50843e-016
1.95195e-016
9.34024e-017
1.6187e-016
1.2147e-016
5.25082e-017
1.81896e-017
1.11525e-016
-1.61179e-016
-6.32876e-017
-1.44726e-016
-1.1385e-016
-8.36752e-017
-9.97584e-017
-5.46832e-017
-1.08088e-016
8.79359e-017
-1.91493e-016
-1.06198e-016
-5.15265e-017
-1.95926e-016
-2.05162e-016
-1.25646e-016
-1.64805e-016
-1.40124e-016
-4.71481e-017
-5.86344e-019
-8.66967e-017
1.36001e-016
9.63602e-017
1.61458e-016
1.47381e-016
8.05027e-017
1.01185e-016
4.16213e-017
1.15339e-016
-6.12317e-017
1.69837e-016
1.2364e-016
3.75879e-018
1.90893e-016
2.54471e-016
9.69586e-017
1.39115e-016
1.29472e-016
1.92005e-017
3.51301e-017
6.11912e-017
1.34111e-016
7.295e-017
1.60517e-016
1.31177e-016
9.21166e-017
8.65736e-017
4.3296e-017
1.03824e-016
-9.32898e-017
1.73699e-016
1.0179e-016
1.77349e-017
1.7929e-016
1.94908e-016
1.19091e-016
1.84149e-016
1.42956e-016
5.04964e-017
2.0863e-017
1.12546e-016
1.23884e-016
8.48476e-017
1.36824e-016
1.49178e-016
4.45909e-017
1.19122e-016
4.96544e-017
9.06504e-017
-7.83265e-017
1.92147e-016
1.60826e-016
4.74944e-017
2.23018e-016
2.21343e-016
1.52859e-016
2.01653e-016
1.57482e-016
7.75019e-017
3.82503e-017
1.25905e-016
-1.50986e-016
-1.08266e-016
-1.78872e-016
-1.54926e-016
-8.16384e-017
-1.24768e-016
-4.88257e-017
-1.11476e-016
7.99005e-017
-2.05415e-016
-1.81877e-016
-5.66886e-017
-1.82952e-016
-2.21175e-016
-1.22983e-016
-2.22563e-016
-1.84541e-016
-4.65043e-017
-2.12218e-017
-1.16624e-016
1.28653e-016
7.67122e-017
1.50366e-016
1.31592e-016
5.95351e-017
9.649e-017
6.03954e-017
1.14887e-016
-7.63545e-017
1.77067e-016
1.46563e-016
1.73785e-017
1.77701e-016
2.10772e-016
1.15588e-016
1.84525e-016
1.03232e-016
5.82797e-017
7.51214e-018
9.64554e-017
1.36534e-016
8.28171e-017
1.41442e-016
1.27587e-016
8.49209e-017
1.16104e-016
2.82686e-017
1.1062e-016
-8.9416e-017
1.46218e-016
1.22256e-016
-3.90052e-018
1.77679e-016
2.17667e-016
1.2723e-016
1.8691e-016
1.37676e-016
2.61197e-017
4.219e-017
8.5222e-017
-1.23629e-016
-8.12914e-017
-1.45029e-016
-1.51051e-016
-7.14811e-017
-1.19353e-016
-5.20078e-017
-9.41904e-017
9.60301e-017
-1.65696e-016
-1.44818e-016
-3.2797e-017
-2.11921e-016
-2.23207e-016
-1.20459e-016
-1.94673e-016
-1.31317e-016
-5.2593e-017
-1.49292e-017
-1.00944e-016
1.38169e-016
9.00507e-017
1.41486e-016
1.59904e-016
9.24148e-017
1.39202e-016
2.40506e-017
1.19499e-016
-7.91438e-017
1.53361e-016
1.55213e-016
3.76186e-017
1.83959e-016
2.12953e-016
1.2244e-016
2.03532e-016
1.32164e-016
6.99263e-017
4.68747e-017
1.0478e-016
1.37479e-016
8.17342e-017
1.85224e-016
1.45744e-016
3.80129e-017
1.35883e-016
3.0445e-017
1.38236e-016
-1.03892e-016
1.69095e-016
1.21537e-016
1.53786e-017
1.95555e-016
2.46365e-016
1.09449e-016
1.99683e-016
1.37923e-016
7.4965e-017
1.05728e-017
8.61306e-017
1.14022e-016
6.83378e-017
1.51265e-016
1.70522e-016
9.02285e-017
1.1596e-016
6.78275e-017
1.28937e-016
-1.00843e-016
1.90378e-016
1.59008e-016
1.39868e-017
1.6155e-016
2.27164e-016
1.5079e-016
2.28544e-016
1.39267e-016
3.80323e-017
3.69928e-017
1.13492e-016
1.12769e-016
8.35572e-017
1.64818e-016
1.456e-016
6.96932e-017
9.43826e-017
4.51148e-017
1.04502e-016
-8.28323e-017
1.56666e-016
1.26419e-016
2.47369e-017
1.89491e-016
2.34369e-016
9.87538e-017
1.8038e-016
1.5478e-016
6.84766e-017
2.64153e-017
8.55969e-017
-1.61957e-016
-6.37999e-017
-1.56977e-016
-1.5597e-016
-9.67539e-017
-9.30488e-017
-5.26725e-017
-1.27342e-016
1.30502e-016
-2.2367e-016
-1.14066e-016
-5.32458e-017
-1.82805e-016
-2.3402e-016
-1.42128e-016
-1.99661e-016
-1.25248e-016
-1.34324e-017
-2.01738e-017
-1.20194e-016
-1.37798e-016
-8.42555e-017
-1.35485e-016
-1.5625e-016
-6.48777e-017
-1.16106e-016
-3.62212e-017
-1.28818e-016
8.30537e-017
-1.62786e-016
-1.32948e-016
-2.43207e-017
-1.63666e-016
-2.41216e-016
-1.25343e-016
-1.80425e-016
-1.63591e-016
-3.78384e-017
-3.20363e-017
-1.0928e-016
-1.39446e-016
-7.36601e-017
-1.46718e-016
-1.35822e-016
-7.54798e-017
-7.1586e-017
-4.87725e-017
-1.13281e-016
6.7649e-017
-1.61327e-016
-1.31827e-016
-1.60849e-017
-1.72775e-016
-2.25752e-016
-9.91976e-017
-1.5903e-016
-1.50497e-016
-4.52987e-017
-2.73503e-017
-1.0569e-016
-1.39993e-016
-7.74324e-017
-1.60462e-016
-1.1404e-016
-8.96234e-017
-8.79657e-017
-6.35196e-017
-1.19121e-016
8.14753e-017
-1.48783e-016
-1.25996e-016
-5.94099e-018
-1.87033e-016
-2.20696e-016
-9.49598e-017
-1.83777e-016
-1.63639e-016
-2.74895e-017
-3.09651e-017
-1.31747e-016
-1.22373e-016
-7.21593e-017
-1.66598e-016
-1.21876e-016
-4.92695e-017
-1.0882e-016
-5.04561e-017
-9.45644e-017
6.2241e-017
-1.49036e-016
-1.3927e-016
-2.86241e-017
-1.66999e-016
-2.40449e-016
-8.75808e-017
-1.43418e-016
-1.43803e-016
-4.71322e-017
-9.79786e-018
-1.0629e-016
-1.83496e-016
-9.47484e-017
-1.46701e-016
-1.3287e-016
-1.05027e-016
-1.12101e-016
-3.59074e-017
-1.21232e-016
8.51884e-017
-2.17271e-016
-1.67102e-016
-6.50246e-017
-2.13691e-016
-2.66213e-016
-9.2413e-017
-2.14863e-016
-1.30087e-016
-6.637e-017
-1.99805e-017
-1.20763e-016
-1.5047e-016
-8.67908e-017
-1.63438e-016
-1.58313e-016
-8.59305e-017
-1.25948e-016
-5.61627e-017
-1.08523e-016
1.0191e-016
-2.24417e-016
-1.46054e-016
-4.91144e-017
-2.02879e-016
-2.11782e-016
-1.12879e-016
-1.95439e-016
-1.68629e-016
-5.10821e-017
-2.0265e-017
-1.26487e-016
-1.326e-016
-9.44102e-017
-1.78757e-016
-1.59056e-016
-3.17853e-017
-1.02142e-016
-5.33571e-017
-9.69043e-017
5.92388e-017
-1.71466e-016
-1.34515e-016
-1.51351e-017
-1.61348e-016
-2.41134e-016
-1.04874e-016
-1.67671e-016
-1.62736e-016
-5.13881e-017
-2.21301e-017
-1.14076e-016
-1.44131e-016
-6.36173e-017
-1.33647e-016
-1.27075e-016
-9.85528e-017
-1.10519e-016
-4.78087e-017
-1.10518e-016
8.86382e-017
-2.04265e-016
-9.77599e-017
-1.40227e-017
-1.92151e-016
-2.40744e-016
-1.22815e-016
-1.92184e-016
-1.72313e-016
-5.84623e-017
-3.26528e-017
-1.15657e-016
1.18926e-016
8.37795e-017
1.47006e-016
1.2532e-016
6.23873e-017
1.1477e-016
5.84503e-017
1.31288e-016
-1.11226e-016
1.9405e-016
1.4717e-016
1.3859e-017
2.16512e-016
2.23184e-016
1.24792e-016
2.32199e-016
1.49903e-016
5.85686e-017
1.25653e-017
1.19286e-016
-1.52324e-016
-1.00744e-016
-1.94486e-016
-1.46217e-016
-8.03741e-017
-1.3095e-016
-5.39073e-017
-1.15835e-016
1.0044e-016
-2.0875e-016
-1.64313e-016
-5.71041e-017
-1.94972e-016
-2.37603e-016
-1.36157e-016
-2.0079e-016
-1.77436e-016
-1.57563e-017
-3.93165e-017
-1.36209e-016
1.64808e-016
8.59486e-017
1.39852e-016
1.73699e-016
6.83444e-017
1.04671e-016
5.99847e-017
1.30147e-016
-7.9322e-017
2.2661e-016
1.58942e-016
6.29312e-017
1.94054e-016
2.7079e-016
1.31502e-016
2.20287e-016
1.65432e-016
6.41913e-017
2.64479e-017
1.15747e-016
1.25214e-016
7.16566e-017
1.54718e-016
1.35839e-016
8.26148e-017
1.07933e-016
4.09865e-017
1.28677e-016
-7.32869e-017
2.18754e-016
1.43348e-016
2.54882e-017
1.76134e-016
2.27935e-016
1.0623e-016
1.92644e-016
1.48868e-016
2.54402e-017
2.12238e-017
1.47832e-016
1.40243e-016
5.61954e-017
1.43796e-016
1.11582e-016
8.49728e-017
1.27174e-016
5.40456e-017
1.14556e-016
-8.02592e-017
1.81986e-016
1.16122e-016
3.4696e-017
1.72989e-016
2.28479e-016
1.0852e-016
1.93489e-016
1.48464e-016
2.71831e-017
2.56293e-017
9.0916e-017
1.31476e-016
1.01691e-016
1.69562e-016
1.40422e-016
5.4112e-017
1.54524e-016
4.42694e-017
1.1607e-016
-8.45864e-017
1.80006e-016
1.41609e-016
5.79148e-017
1.773e-016
2.30444e-016
1.16612e-016
2.41518e-016
1.4909e-016
2.68389e-017
1.98056e-017
1.10771e-016
-1.20499e-016
-1.04251e-016
-1.72594e-016
-1.61641e-016
-8.31992e-017
-1.28579e-016
-4.58743e-017
-1.11887e-016
1.19151e-016
-1.9599e-016
-1.46927e-016
-3.02425e-017
-1.91157e-016
-2.14758e-016
-9.02659e-017
-2.18692e-016
-1.56413e-016
-5.04011e-017
-4.75728e-017
-1.12851e-016
1.28012e-016
7.39898e-017
1.29813e-016
1.47534e-016
6.38865e-017
8.6497e-017
3.92391e-017
1.13489e-016
-6.40441e-017
1.69336e-016
1.37003e-016
3.47117e-017
1.64811e-016
2.30798e-016
1.21911e-016
1.97093e-016
1.23697e-016
3.64117e-017
2.35046e-017
1.01989e-016
1.34757e-016
5.86838e-017
1.80201e-016
1.41221e-016
8.38169e-017
1.05323e-016
5.68729e-017
1.47978e-016
-1.17455e-016
2.00585e-016
1.38389e-016
1.69981e-017
1.70759e-016
2.46996e-016
1.13904e-016
1.96874e-016
1.28192e-016
6.50087e-017
1.11254e-017
1.22584e-016
1.33209e-016
8.664e-017
1.48178e-016
1.51648e-016
4.85235e-017
1.23782e-016
5.07375e-017
1.13664e-016
-1.00514e-016
1.94332e-016
1.41963e-016
5.28976e-017
1.83414e-016
2.4828e-016
1.36092e-016
2.11364e-016
1.6798e-016
4.51159e-017
1.44417e-017
1.19172e-016
1.39267e-016
4.16e-017
1.486e-016
1.72891e-016
1.15553e-016
1.16968e-016
3.76385e-017
1.09597e-016
-1.03208e-016
1.86994e-016
1.03788e-016
2.54998e-018
1.74551e-016
2.46378e-016
1.50183e-016
1.89806e-016
1.62193e-016
5.70049e-017
5.15774e-017
1.4193e-016
-1.48419e-016
-8.00689e-017
-1.31594e-016
-1.41946e-016
-6.57569e-017
-1.16639e-016
-5.86032e-017
-9.99446e-017
8.10031e-017
-1.79929e-016
-1.06713e-016
-2.9621e-017
-2.08879e-016
-2.17652e-016
-1.21445e-016
-1.99295e-016
-1.45061e-016
-2.10717e-017
-5.71958e-018
-1.07339e-016
1.21656e-016
6.37073e-017
1.4224e-016
1.32908e-016
8.38721e-017
1.02999e-016
4.50811e-017
1.22438e-016
-1.08086e-016
1.52691e-016
1.26992e-016
1.31996e-017
1.65712e-016
2.02449e-016
1.0206e-016
1.94764e-016
1.70473e-016
6.33618e-017
3.49239e-017
9.0549e-017
-1.09004e-016
-7.38398e-017
-1.82697e-016
-1.67539e-016
-1.10008e-016
-1.12481e-016
-2.96892e-017
-1.30222e-016
9.79886e-017
-1.59814e-016
-1.32451e-016
-4.46613e-017
-1.7099e-016
-2.53799e-016
-8.76852e-017
-1.90039e-016
-1.46273e-016
-5.35992e-017
-5.73545e-017
-1.09191e-016
-1.30511e-016
-1.06908e-016
-1.56185e-016
-1.52831e-016
-1.08802e-016
-1.50681e-016
-6.77135e-017
-1.40846e-016
9.98576e-017
-1.98801e-016
-1.80786e-016
-5.13205e-017
-2.1023e-016
-2.31681e-016
-1.47334e-016
-2.27312e-016
-1.68122e-016
-6.69265e-017
-3.37603e-017
-1.20727e-016
-1.37148e-016
-8.39565e-017
-1.72774e-016
-1.80282e-016
-9.00348e-017
-1.38585e-016
-5.53556e-017
-1.02712e-016
1.10698e-016
-2.12755e-016
-1.48485e-016
-4.65637e-017
-1.78729e-016
-2.25709e-016
-1.13216e-016
-2.08896e-016
-1.26654e-016
-6.26641e-017
-2.68155e-017
-1.60284e-016
-1.11408e-016
-8.03771e-017
-1.49109e-016
-1.34565e-016
-7.99089e-017
-1.05394e-016
-3.57211e-017
-8.20093e-017
8.91456e-017
-1.78175e-016
-1.25835e-016
-8.96498e-018
-1.97216e-016
-2.1427e-016
-1.11242e-016
-1.77913e-016
-1.62927e-016
-3.66765e-017
-4.10813e-017
-1.11366e-016
-1.3692e-016
-9.38755e-017
-1.66993e-016
-1.4133e-016
-6.70332e-017
-1.13266e-016
-3.55966e-017
-1.01915e-016
1.06522e-016
-1.71951e-016
-1.47519e-016
-5.67435e-017
-1.92953e-016
-2.18414e-016
-1.12894e-016
-2.45101e-016
-1.45109e-016
-1.94713e-017
-1.82951e-017
-1.01558e-016
-1.44714e-016
-9.69453e-017
-1.62131e-016
-1.70681e-016
-6.10116e-017
-1.07008e-016
-6.92556e-017
-1.16476e-016
7.32575e-017
-1.40775e-016
-1.14891e-016
-2.48406e-017
-1.67418e-016
-2.30078e-016
-1.08418e-016
-1.81599e-016
-1.23551e-016
-4.41034e-017
-9.49976e-019
-1.10259e-016
1.36508e-016
7.39786e-017
1.67642e-016
1.38491e-016
6.83315e-017
7.43514e-017
3.88532e-017
1.01587e-016
-5.96535e-017
1.4598e-016
1.0867e-016
8.56074e-018
1.52752e-016
2.20343e-016
1.24645e-016
1.44372e-016
1.08786e-016
1.17299e-017
5.38753e-017
1.03862e-016
1.43007e-016
9.32392e-017
1.69868e-016
1.31207e-016
9.05446e-017
1.07297e-016
1.94094e-017
1.2835e-016
-8.55681e-017
1.53971e-016
1.2649e-016
1.80306e-017
1.58488e-016
2.1146e-016
1.23818e-016
1.48154e-016
1.3269e-016
6.46149e-017
4.67979e-017
8.81084e-017
-1.22143e-016
-8.26242e-017
-1.73009e-016
-1.56075e-016
-7.05133e-017
-1.18502e-016
-4.81777e-017
-1.04345e-016
1.23117e-016
-2.04427e-016
-1.3228e-016
-2.91295e-017
-1.80916e-016
-2.22395e-016
-1.22531e-016
-2.19721e-016
-1.71767e-016
-7.12933e-017
-4.12522e-017
-1.25362e-016
1.12405e-016
6.00215e-017
1.43899e-016
1.62933e-016
5.34121e-017
1.01526e-016
3.72836e-017
1.11595e-016
-7.31946e-017
1.2801e-016
1.51377e-016
1.67263e-017
1.5928e-016
2.21862e-016
1.02147e-016
1.97466e-016
1.55633e-016
5.59915e-017
2.52705e-017
1.16814e-016
1.38298e-016
6.50588e-017
1.58398e-016
1.62372e-016
8.43151e-017
1.08053e-016
2.63857e-017
1.26115e-016
-7.80684e-017
1.68242e-016
1.43439e-016
2.61828e-017
1.18574e-016
2.13885e-016
9.8525e-017
1.59314e-016
1.39799e-016
3.38899e-017
3.61426e-017
1.07e-016
-1.36167e-016
-8.75774e-017
-1.79419e-016
-1.44188e-016
-6.25613e-017
-1.27087e-016
-8.00282e-017
-1.02112e-016
5.23055e-017
-1.91169e-016
-1.27773e-016
-6.19677e-018
-1.46155e-016
-2.3984e-016
-1.17522e-016
-1.63459e-016
-1.42415e-016
-4.27685e-017
-1.63779e-017
-1.39018e-016
1.38705e-016
7.38881e-017
1.66415e-016
1.49686e-016
6.95382e-017
1.21478e-016
1.9603e-017
1.17514e-016
-8.03535e-017
1.90404e-016
1.36018e-016
6.31857e-017
1.74017e-016
2.37968e-016
1.25649e-016
2.23037e-016
1.7175e-016
3.01171e-017
1.84189e-018
1.10926e-016
1.48593e-016
9.0377e-017
1.451e-016
1.6599e-016
6.7957e-017
9.47806e-017
4.30274e-017
9.51105e-017
-7.0681e-017
1.91184e-016
1.42086e-016
4.68957e-017
1.86208e-016
2.20804e-016
1.1723e-016
2.18841e-016
1.34107e-016
2.65009e-017
5.18504e-018
1.38446e-016
1.63524e-016
1.07108e-016
1.57342e-016
1.47636e-016
9.59288e-017
8.78068e-017
3.20361e-017
1.16162e-016
-9.7526e-017
2.01259e-016
1.80615e-016
4.96634e-017
1.88651e-016
2.10438e-016
1.36233e-016
2.12625e-016
1.55302e-016
6.56406e-017
3.30519e-017
1.28617e-016
-1.39812e-016
-8.09836e-017
-1.30087e-016
-1.6915e-016
-6.50264e-017
-1.32486e-016
-3.89069e-017
-1.05743e-016
8.33654e-017
-1.67669e-016
-1.28083e-016
-1.25091e-017
-1.89922e-016
-1.99076e-016
-1.37418e-016
-1.71396e-016
-1.70881e-016
-3.92246e-017
2.06577e-018
-1.2598e-016
-1.42628e-016
-5.71375e-017
-1.51341e-016
-1.18895e-016
-7.70618e-017
-9.20488e-017
-5.58885e-017
-1.04845e-016
8.07905e-017
-1.78303e-016
-9.967e-017
-2.07495e-017
-1.70606e-016
-2.19166e-016
-1.14119e-016
-1.65515e-016
-1.27416e-016
-4.75773e-017
2.49098e-018
-1.02652e-016
1.36022e-016
1.00938e-016
1.57586e-016
1.40458e-016
8.76744e-017
8.68658e-017
4.46719e-017
8.49724e-017
-7.73381e-017
1.72729e-016
1.39764e-016
-1.16692e-017
1.98354e-016
2.35558e-016
1.25228e-016
1.90862e-016
1.29194e-016
4.72397e-017
4.38128e-018
1.24904e-016
1.36542e-016
6.78949e-017
1.53786e-016
1.57189e-016
6.77698e-017
9.91313e-017
5.98265e-017
1.10426e-016
-7.48304e-017
1.91799e-016
1.45432e-016
5.02814e-017
1.71653e-016
1.97097e-016
1.29838e-016
1.85672e-016
1.59349e-016
3.70059e-017
3.44338e-017
1.06267e-016
-8.54498e-017
-7.99954e-017
-1.47279e-016
-1.06251e-016
-8.2675e-017
-8.23204e-017
-4.34925e-017
-1.24108e-016
8.25737e-017
-1.69503e-016
-1.06581e-016
-1.87999e-017
-1.74044e-016
-2.05502e-016
-1.10785e-016
-1.94828e-016
-1.10978e-016
-1.96183e-017
-2.73715e-017
-1.01636e-016
-1.46111e-016
-7.91635e-017
-2.00988e-016
-1.63112e-016
-7.32531e-017
-7.70951e-017
-5.93537e-017
-1.23633e-016
8.48839e-017
-1.8611e-016
-1.16462e-016
-2.14508e-018
-1.71927e-016
-2.20874e-016
-1.09526e-016
-1.71257e-016
-1.13859e-016
-1.82306e-017
-4.06286e-017
-1.18443e-016
1.30304e-016
6.17399e-017
1.57944e-016
1.75605e-016
6.59413e-017
9.80226e-017
4.54459e-017
1.09513e-016
-7.84587e-017
1.63099e-016
1.304e-016
8.47216e-018
1.33814e-016
2.12925e-016
9.29782e-017
1.28664e-016
1.31147e-016
6.94153e-017
2.98948e-017
1.13688e-016
1.33796e-016
8.13102e-017
1.4642e-016
1.46883e-016
8.57272e-017
1.00477e-016
5.28642e-017
1.13643e-016
-5.64883e-017
1.45605e-016
1.47664e-016
4.18822e-017
1.60862e-016
2.41192e-016
8.60674e-017
1.92835e-016
1.31916e-016
5.63971e-017
2.18981e-017
6.89815e-017
-1.23841e-016
-8.19091e-017
-1.79132e-016
-1.40582e-016
-7.68833e-017
-9.3067e-017
-3.11105e-017
-9.97843e-017
5.70037e-017
-1.68141e-016
-1.57383e-016
-1.24172e-017
-1.34654e-016
-2.16927e-016
-8.71666e-017
-1.38386e-016
-1.17181e-016
-6.60668e-017
-2.51811e-017
-1.08614e-016
-1.18229e-016
-9.77509e-017
-1.54071e-016
-1.66226e-016
-4.83856e-017
-1.03211e-016
-5.96732e-017
-1.19527e-016
8.15682e-017
-1.71588e-016
-1.32219e-016
-9.79754e-018
-1.84472e-016
-2.30641e-016
-9.9947e-017
-1.80911e-016
-1.54475e-016
-5.12321e-017
-1.36738e-017
-1.09842e-016
1.39884e-016
8.38083e-017
1.39479e-016
1.46845e-016
8.71332e-017
1.25816e-016
5.45898e-017
9.91747e-017
-7.61937e-017
1.602e-016
1.49312e-016
4.67005e-017
2.02257e-016
2.24548e-016
1.25478e-016
2.03245e-016
1.3638e-016
6.92323e-017
4.35856e-018
9.8902e-017
-1.49487e-016
-9.58663e-017
-1.31737e-016
-1.34659e-016
-9.50302e-017
-1.45895e-016
-5.65995e-017
-1.02255e-016
9.34109e-017
-1.85381e-016
-1.57623e-016
-5.36967e-017
-1.78342e-016
-2.46187e-016
-1.09063e-016
-2.04407e-016
-1.95115e-016
-4.16749e-017
-2.9576e-017
-1.34959e-016
-1.23508e-016
-8.1315e-017
-1.3874e-016
-1.19808e-016
-1.96137e-017
-1.40263e-016
-4.39577e-017
-9.84882e-017
8.4886e-017
-1.86125e-016
-1.46186e-016
-3.89814e-017
-2.08512e-016
-2.50202e-016
-1.2483e-016
-1.81513e-016
-1.45516e-016
-2.8149e-017
-1.22374e-017
-1.42522e-016
1.43004e-016
5.69321e-017
1.65213e-016
1.40152e-016
3.92909e-017
1.03871e-016
6.44166e-017
8.70691e-017
-7.96668e-017
1.61257e-016
1.56449e-016
2.11401e-017
1.67502e-016
2.26764e-016
1.20457e-016
1.9853e-016
1.57171e-016
7.04083e-017
2.22793e-017
1.3792e-016
-1.22153e-016
-8.26199e-017
-1.91754e-016
-1.91818e-016
-6.71356e-017
-1.46243e-016
-5.36556e-017
-1.24794e-016
1.00041e-016
-1.82153e-016
-1.40294e-016
-4.28119e-017
-2.07476e-016
-2.35259e-016
-1.0272e-016
-1.96114e-016
-1.45583e-016
-4.14213e-017
-8.76123e-018
-1.57103e-016
-1.25892e-016
-5.25825e-017
-1.74963e-016
-1.2637e-016
-6.20502e-017
-1.21256e-016
-1.14537e-017
-9.03153e-017
7.0361e-017
-1.71578e-016
-1.40958e-016
-2.23763e-017
-2.05605e-016
-2.2372e-016
-1.32656e-016
-2.08758e-016
-1.28263e-016
-3.86909e-017
3.7276e-018
-1.28875e-016
-1.42445e-016
-8.09339e-017
-1.47157e-016
-1.61977e-016
-5.77073e-017
-9.97383e-017
-5.2506e-017
-8.88174e-017
6.95855e-017
-1.64699e-016
-1.48459e-016
-2.28362e-017
-1.80553e-016
-2.17677e-016
-1.26022e-016
-1.93393e-016
-1.34004e-016
-3.85405e-017
-1.89237e-017
-1.17076e-016
-1.70441e-016
-1.04631e-016
-1.48323e-016
-1.43156e-016
-6.32041e-017
-1.1531e-016
-2.61535e-017
-9.97241e-017
7.91641e-017
-1.81673e-016
-1.2331e-016
-1.02132e-017
-1.69551e-016
-2.04069e-016
-1.27663e-016
-2.0506e-016
-1.47017e-016
-4.61708e-017
-2.50715e-017
-1.24038e-016
-1.63617e-016
-1.02038e-016
-1.70784e-016
-1.50159e-016
-5.65979e-017
-1.10317e-016
-5.00203e-017
-1.16357e-016
1.2104e-016
-2.03424e-016
-1.39156e-016
-1.85453e-017
-1.93906e-016
-1.90037e-016
-1.49395e-016
-1.77092e-016
-1.34512e-016
-6.3034e-017
-3.73988e-017
-1.04533e-016
-1.19185e-016
-9.5756e-017
-1.41298e-016
-1.44322e-016
-5.50738e-017
-9.58149e-017
-5.88913e-017
-8.09482e-017
8.23527e-017
-1.85333e-016
-1.36163e-016
-1.54148e-017
-1.6673e-016
-2.21513e-016
-1.29236e-016
-1.99646e-016
-1.4281e-016
-3.06933e-017
-6.38729e-018
-1.1263e-016
1.40811e-016
9.75985e-017
1.63056e-016
1.61171e-016
8.34464e-017
1.10426e-016
3.03604e-017
1.13295e-016
-1.07595e-016
1.74931e-016
1.11418e-016
5.69759e-018
1.88561e-016
2.31796e-016
1.47736e-016
2.04658e-016
1.66135e-016
3.39374e-017
1.54336e-018
1.05358e-016
1.2423e-016
8.29282e-017
1.57673e-016
1.47219e-016
1.0595e-016
1.09741e-016
5.57109e-017
1.35674e-016
-1.16445e-016
2.0694e-016
1.41829e-016
4.87029e-017
1.64629e-016
2.31331e-016
1.22533e-016
2.19942e-016
1.33961e-016
7.31544e-017
1.08756e-017
1.32216e-016
1.30709e-016
4.22844e-017
1.52072e-016
1.26187e-016
5.50151e-017
1.34948e-016
4.51684e-017
9.13316e-017
-9.19483e-017
1.86384e-016
1.31348e-016
3.17619e-018
1.84396e-016
2.34091e-016
9.33705e-017
1.83041e-016
1.54573e-016
5.59608e-017
5.46263e-017
8.81322e-017
-1.34673e-016
-9.08314e-017
-1.66109e-016
-1.48747e-016
-7.2302e-017
-1.0787e-016
-3.35818e-017
-9.06995e-017
7.26338e-017
-1.66788e-016
-1.24798e-016
-1.88595e-017
-1.72574e-016
-2.30151e-016
-6.95761e-017
-1.88197e-016
-1.65442e-016
-5.81381e-017
-1.70308e-017
-9.44222e-017
1.38595e-016
8.30054e-017
1.37171e-016
1.07751e-016
8.09275e-017
7.81402e-017
6.4728e-017
1.10095e-016
-9.09917e-017
1.7494e-016
1.19473e-016
3.12053e-017
1.79603e-016
2.52365e-016
1.03492e-016
1.94894e-016
1.47656e-016
5.12808e-017
2.75591e-017
1.33025e-016
-1.31916e-016
-1.03275e-016
-1.47396e-016
-1.37753e-016
-1.16043e-016
-9.78596e-017
-4.30661e-017
-1.02548e-016
5.59163e-017
-1.46261e-016
-1.27529e-016
-3.03109e-017
-1.69842e-016
-2.28462e-016
-1.11019e-016
-1.85057e-016
-1.53349e-016
-5.54302e-017
-1.74768e-017
-1.27281e-016
-1.53459e-016
-8.91277e-017
-1.55598e-016
-1.50644e-016
-8.31007e-017
-1.44487e-016
-5.53676e-017
-1.59015e-016
8.60052e-017
-2.01147e-016
-1.48915e-016
-1.35818e-017
-1.98829e-016
-2.1191e-016
-1.48996e-016
-1.84218e-016
-1.4331e-016
-4.06578e-017
-5.57475e-017
-1.14068e-016
1.30803e-016
9.38416e-017
1.81444e-016
1.60774e-016
7.43734e-017
1.1238e-016
6.65549e-017
1.17328e-016
-5.11196e-017
1.64271e-016
1.46243e-016
1.05178e-017
1.46661e-016
2.1826e-016
1.0262e-016
1.58116e-016
1.33871e-016
2.31485e-017
1.63288e-017
1.04126e-016
1.36665e-016
6.36112e-017
1.61769e-016
1.50584e-016
9.49212e-017
1.21789e-016
6.58555e-017
1.06443e-016
-8.01845e-017
2.11193e-016
1.36886e-016
5.82249e-017
2.02002e-016
2.00598e-016
1.47648e-016
1.93403e-016
1.43664e-016
5.73371e-017
2.16008e-017
1.11595e-016
-1.3461e-016
-8.27811e-017
-1.74333e-016
-1.51474e-016
-6.90836e-017
-1.26808e-016
-4.80139e-017
-1.05917e-016
9.3227e-017
-2.09354e-016
-1.33363e-016
-5.70793e-017
-2.0861e-016
-1.99484e-016
-1.28326e-016
-1.88554e-016
-1.52299e-016
-1.30206e-017
-6.75172e-018
-1.2389e-016
1.39967e-016
7.43037e-017
1.69373e-016
1.53446e-016
9.13672e-017
1.34414e-016
2.44001e-017
1.25105e-016
-8.72676e-017
1.7084e-016
1.43704e-016
3.35313e-017
1.82781e-016
2.2479e-016
1.17394e-016
1.87217e-016
1.28999e-016
5.58516e-017
4.17337e-017
1.36222e-016
-1.49273e-016
-7.63443e-017
-1.55977e-016
-1.48356e-016
-5.56457e-017
-1.23066e-016
-2.9574e-017
-1.22268e-016
7.68688e-017
-1.92697e-016
-1.46442e-016
-1.22775e-017
-1.72937e-016
-2.51534e-016
-1.09623e-016
-1.78839e-016
-1.39155e-016
-5.37624e-017
-1.47672e-017
-1.05969e-016
1.0416e-016
6.87316e-017
1.68107e-016
1.01459e-016
8.68643e-017
1.01165e-016
6.18714e-017
1.21208e-016
-5.88006e-017
1.53179e-016
1.33062e-016
1.63185e-017
1.51848e-016
2.25078e-016
1.1114e-016
1.93247e-016
1.11407e-016
3.94581e-017
2.67089e-017
1.1843e-016
-1.20811e-016
-8.79007e-017
-1.5266e-016
-1.44158e-016
-1.07426e-016
-1.16384e-016
-3.85867e-017
-1.17767e-016
8.74968e-017
-1.87002e-016
-1.31866e-016
-5.08723e-017
-2.16511e-016
-2.29681e-016
-1.35301e-016
-1.66974e-016
-1.29888e-016
-5.40111e-017
-1.91814e-017
-9.47383e-017
1.31171e-016
8.83688e-017
1.74665e-016
1.28344e-016
4.80082e-017
1.00005e-016
2.64921e-017
1.2542e-016
-1.12501e-016
1.67259e-016
1.00533e-016
3.53836e-017
1.56149e-016
2.12746e-016
1.53867e-016
1.78445e-016
1.28507e-016
4.69529e-017
-2.58073e-018
9.39748e-017
1.62195e-016
8.45473e-017
1.47356e-016
1.33946e-016
1.13119e-016
9.18505e-017
5.18441e-017
1.31179e-016
-1.05431e-016
1.93152e-016
1.22447e-016
2.65919e-017
1.99618e-016
2.20957e-016
1.24761e-016
2.01761e-016
1.4034e-016
3.58241e-017
4.23153e-017
1.10088e-016
1.48948e-016
8.97981e-017
1.59202e-016
1.41386e-016
6.10837e-017
1.05183e-016
6.03915e-017
1.20303e-016
-6.96722e-017
1.75224e-016
1.3063e-016
4.84115e-017
1.57978e-016
1.92912e-016
8.6788e-017
2.15285e-016
1.27993e-016
2.92752e-017
2.43119e-017
1.13473e-016
1.34015e-016
6.60985e-017
1.64115e-016
1.41354e-016
1.25825e-016
1.23354e-016
3.99292e-017
1.12699e-016
-1.1799e-016
2.53236e-016
1.58913e-016
6.35307e-017
1.95999e-016
2.47604e-016
1.16114e-016
1.91579e-016
1.78891e-016
3.07579e-017
1.64063e-017
1.25447e-016
1.45366e-016
4.89137e-017
1.60788e-016
1.2931e-016
8.52929e-017
1.07241e-016
4.88321e-017
1.34577e-016
-8.63403e-017
1.78031e-016
1.1187e-016
3.54486e-017
1.84668e-016
2.21448e-016
1.16713e-016
2.05637e-016
1.25221e-016
3.5505e-017
7.61105e-018
1.30191e-016
1.51109e-016
8.29857e-017
1.38768e-016
1.5673e-016
8.82615e-017
1.39338e-016
1.79085e-017
1.09904e-016
-8.63873e-017
